RowNames	Chr	GenomeStart	GenomeEnd	GenomeMid	FeatureStart	FeatureEnd	Strand	Description	EnsemblGeneID
1555	1	3092097	3092206	3092151	3092097	3092206	1	U6 spliceosomal RNA [Source: RFAM 8.0] [Source: RFAM 8.0]	ENSMUSG00000064842
1	1	3206103	3661429	3433766	3661429	3206103	-1	X Kell blood group precursor related family member 4 [Source:MarkerSymbol;Acc:MGI:3528744]	ENSMUSG00000051951
2	1	3266404	3267429	3266916	3266404	3267429	1	Mus Musculus type D-like endogenous retrovirus 1 [Source:MarkerSymbol;Acc:MGI:2675046]	ENSMUSG00000073743
3	1	3670652	3670993	3670822	3670652	3670993	1	predicted gene, ENSMUSG00000073742 [Source:MarkerSymbol;Acc:MGI:3642703]	ENSMUSG00000073742
1567	1	3773893	3773942	3773917	3773942	3773893	-1	U7 small nuclear RNA [Source: RFAM 8.0] [Source: RFAM 8.0]	ENSMUSG00000077600
1522	1	3773957	3774006	3773981	3774006	3773957	-1	U7 small nuclear RNA [Source: RFAM 8.0] [Source: RFAM 8.0]	ENSMUSG00000077395
4	1	4334224	4350473	4342348	4350473	4334224	-1	retinitis pigmentosa 1 homolog (human) [Source:MarkerSymbol;Acc:MGI:1341105]	ENSMUSG00000025900
5	1	4481009	4486494	4483751	4486494	4481009	-1	SRY-box containing gene 17 [Source:MarkerSymbol;Acc:MGI:107543]	ENSMUSG00000025902
1493	1	4519098	4519204	4519151	4519098	4519204	1	U6 spliceosomal RNA [Source: RFAM 8.0] [Source: RFAM 8.0]	ENSMUSG00000064376
1361	1	4679207	4679485	4679346	4679485	4679207	-1		ENSMUSG00000072448
1362	1	4761212	4762280	4761746	4761212	4762280	1		ENSMUSG00000050025
6	1	4763292	4775790	4769541	4775790	4763292	-1	mitochondrial ribosomal protein L15 [Source:MarkerSymbol;Acc:MGI:1351639]	ENSMUSG00000033845
7	1	4797943	4836817	4817380	4797943	4836817	1	lysophospholipase 1 [Source:MarkerSymbol;Acc:MGI:1344588]	ENSMUSG00000025903
8	1	4870130	4870732	4870431	4870732	4870130	-1	High mobility group box 3 (Fragment). [Source:Uniprot/SPTREMBL;Acc:A2AP78]	ENSMUSG00000062588
9	1	4882025	4885092	4883559	4882025	4885092	1		ENSMUSG00000033813
10	1	4900326	5009507	4954916	5009507	4900326	-1	regulator of G-protein signaling 20 [Source:MarkerSymbol;Acc:MGI:1929866]	ENSMUSG00000002459
11	1	5073254	5152630	5112942	5073254	5152630	1	ATPase, H+ transporting, lysosomal V1 subunit H [Source:MarkerSymbol;Acc:MGI:1914864]	ENSMUSG00000033793
12	1	5578574	5592947	5585760	5578574	5592947	1	opioid receptor, kappa 1 [Source:MarkerSymbol;Acc:MGI:97439]	ENSMUSG00000025905
13	1	5906388	5907374	5906881	5907374	5906388	-1	neuropeptides B/W receptor 1 [Source:MarkerSymbol;Acc:MGI:891989]	ENSMUSG00000033774
14	1	6204693	6205373	6205033	6205373	6204693	-1	RB1-inducible coiled-coil 1 [Source:MarkerSymbol;Acc:MGI:1341850]	ENSMUSG00000073741
15	1	6204743	6265656	6235199	6204743	6265656	1	RB1-inducible coiled-coil 1 [Source:MarkerSymbol;Acc:MGI:1341850]	ENSMUSG00000025907
16	1	6427686	6431303	6429494	6431303	6427686	-1		ENSMUSG00000073740
17	1	6720132	6851021	6785576	6720132	6851021	1	suppression of tumorigenicity 18 [Source:MarkerSymbol;Acc:MGI:2446700]	ENSMUSG00000033740
18	1	7079284	7162676	7120980	7079284	7162676	1	protein-L-isoaspartate (D-aspartate) O-methyltransferase domain containing 1 [Source:MarkerSymbol;Acc:MGI:2441773]	ENSMUSG00000051285
19	1	7167673	7168971	7168322	7167673	7168971	1		ENSMUSG00000048538
1477	1	7255737	7255866	7255801	7255737	7255866	1	Small nucleolar RNA SNORA17 [Source: RFAM 8.0] [Source: RFAM 8.0]	ENSMUSG00000077244
1363	1	7487933	7488234	7488083	7487933	7488234	1		ENSMUSG00000054338
20	1	8353117	8772831	8562974	8772831	8353117	-1	syntrophin, gamma 1 [Source:MarkerSymbol;Acc:MGI:1918346]	ENSMUSG00000025909
1595	1	8578549	8578658	8578603	8578658	8578549	-1		ENSMUSG00000076169
21	1	8781857	8782096	8781977	8782096	8781857	-1	CDC28 protein kinase regulatory subunit 2 [Source:MarkerSymbol;Acc:MGI:1913447]	ENSMUSG00000062248
1446	1	8806072	8806181	8806126	8806072	8806181	1		ENSMUSG00000076135
1364	1	8845857	8846199	8846028	8846199	8845857	-1	similar to RING-box protein 2 (Rbx2) (RING finger protein 7) (Sensitive to apoptosis gene protein) (LOC674643), mRNA [Source:RefSeq_dna;Acc:XR_004673]	ENSMUSG00000057742
1365	1	8846697	8847038	8846867	8846697	8847038	1	similar to RING-box protein 2 (Rbx2) (RING finger protein 7) (Sensitive to apoptosis gene protein) (LOC674647), mRNA [Source:RefSeq_dna;Acc:XR_004674]	ENSMUSG00000063565
1577	1	9443884	9443986	9443935	9443884	9443986	1	U6 spliceosomal RNA [Source: RFAM 8.0] [Source: RFAM 8.0]	ENSMUSG00000065625
22	1	9530650	9532664	9531657	9530650	9532664	1	RRS1 ribosome biogenesis regulator homolog (S. cerevisiae) [Source:MarkerSymbol;Acc:MGI:1929721]	ENSMUSG00000061024
23	1	9533294	9563182	9548238	9533294	9563182	1	alcohol dehydrogenase, iron containing, 1 [Source:MarkerSymbol;Acc:MGI:1923437]	ENSMUSG00000025911
24	1	9559790	9560863	9560326	9559790	9560863	1		ENSMUSG00000067880
25	1	9586481	9612356	9599419	9586481	9612356	1	RIKEN cDNA 3110035E14 gene [Source:MarkerSymbol;Acc:MGI:1924232]	ENSMUSG00000067879
26	1	9655098	9678608	9666853	9678608	9655098	-1	myeloblastosis oncogene-like 1 [Source:MarkerSymbol;Acc:MGI:99925]	ENSMUSG00000025912
27	1	9708406	9733596	9721001	9733596	9708406	-1	valosin containing protein (p97)/p47 complex interacting protein 1 [Source:MarkerSymbol;Acc:MGI:1917925]	ENSMUSG00000045210
28	1	9783344	9887784	9835564	9783344	9887784	1	serum/glucocorticoid regulated kinase 3 [Source:MarkerSymbol;Acc:MGI:2182368]	ENSMUSG00000025915
29	1	9787408	9787767	9787588	9787767	9787408	-1		ENSMUSG00000046334
30	1	9893852	9907741	9900796	9893852	9907741	1	RIKEN cDNA 6030422M02 gene [Source:MarkerSymbol;Acc:MGI:3045334]	ENSMUSG00000046101
1557	1	9927677	9927763	9927720	9927763	9927677	-1	Small nucleolar RNA SNORD87 [Source: RFAM 8.0] [Source: RFAM 8.0]	ENSMUSG00000064944
31	1	9946138	9946338	9946238	9946338	9946138	-1	predicted gene, ENSMUSG00000073738 [Source:MarkerSymbol;Acc:MGI:3642215]	ENSMUSG00000073738
32	1	9953846	9994350	9974098	9994350	9953846	-1	RIKEN cDNA 4930418G15 gene [Source:MarkerSymbol;Acc:MGI:1921138]	ENSMUSG00000025916
1538	1	9995028	9995131	9995080	9995131	9995028	-1	U6 spliceosomal RNA [Source: RFAM 8.0] [Source: RFAM 8.0]	ENSMUSG00000065085
33	1	10009816	10023160	10016488	10023160	10009816	-1	COP9 (constitutive photomorphogenic) homolog, subunit 5 (Arabidopsis thaliana) [Source:MarkerSymbol;Acc:MGI:1349415]	ENSMUSG00000025917
34	1	10030300	10053549	10041924	10030300	10053549	1	centrosome and spindle pole associated protein 1 [Source:MarkerSymbol;Acc:MGI:2681832]	ENSMUSG00000025918
35	1	10085874	10087046	10086460	10087046	10085874	-1		ENSMUSG00000067864
36	1	10097607	10121980	10109793	10097607	10121980	1	centrosome and spindle pole associated protein 1 [Source:MarkerSymbol;Acc:MGI:2681832]	ENSMUSG00000056763
37	1	10124049	10217708	10170879	10217708	10124049	-1	ADP-ribosylation factor guanine nucleotide-exchange factor 1(brefeldin A-inhibited) [Source:MarkerSymbol;Acc:MGI:2442988]	ENSMUSG00000067851
38	1	10309941	10705157	10507549	10705157	10309941	-1	carboxypeptidase A6 [Source:MarkerSymbol;Acc:MGI:3045348]	ENSMUSG00000042501
1579	1	10540768	10540874	10540821	10540874	10540768	-1	U6 spliceosomal RNA [Source: RFAM 8.0] [Source: RFAM 8.0]	ENSMUSG00000065035
39	1	10853902	10854663	10854282	10853902	10854663	1		ENSMUSG00000063237
40	1	10979007	11284089	11131548	10979007	11284089	1	DEP domain containing 2 [Source:MarkerSymbol;Acc:MGI:1923385]	ENSMUSG00000048960
1500	1	11119325	11119452	11119389	11119452	11119325	-1	Small nucleolar RNA SNORA40 [Source: RFAM 8.0] [Source: RFAM 8.0]	ENSMUSG00000077318
41	1	11399783	11936272	11668027	11399783	11936272	1	RIKEN cDNA A830018L16 gene [Source:MarkerSymbol;Acc:MGI:2444149]	ENSMUSG00000057715
42	1	11609681	11609848	11609765	11609848	11609681	-1		ENSMUSG00000067842
1366	1	12106186	12107049	12106618	12106186	12107049	1	similar to adenine nucleotide translocase (LOC665262), misc RNA [Source:RefSeq_dna;Acc:XR_031159]	ENSMUSG00000058598
1604	1	12360150	12360256	12360203	12360150	12360256	1	U6 spliceosomal RNA [Source: RFAM 8.0] [Source: RFAM 8.0]	ENSMUSG00000064969
43	1	12677656	12845591	12761624	12677656	12845591	1	sulfatase 1 [Source:MarkerSymbol;Acc:MGI:2138563]	ENSMUSG00000016918
44	1	12863809	12976349	12920079	12976349	12863809	-1	solute carrier organic anion transporter family, member 5A1 [Source:MarkerSymbol;Acc:MGI:2443431]	ENSMUSG00000025938
1367	1	13047207	13047562	13047385	13047207	13047562	1		ENSMUSG00000062226
45	1	13099474	13110902	13105188	13110902	13099474	-1	PR domain containing 14 [Source:MarkerSymbol;Acc:MGI:3588194]	ENSMUSG00000042414
46	1	13127689	13359278	13243483	13359278	13127689	-1	nuclear receptor coactivator 2 [Source:MarkerSymbol;Acc:MGI:1276533]	ENSMUSG00000005886
1368	1	13392384	13392868	13392626	13392868	13392384	-1		ENSMUSG00000051420
47	1	13549916	13575078	13562497	13575078	13549916	-1	translocating chain-associating membrane protein 1 [Source:MarkerSymbol;Acc:MGI:1919515]	ENSMUSG00000025935
48	1	13611130	13645749	13628440	13645749	13611130	-1	lactamase, beta 2 [Source:MarkerSymbol;Acc:MGI:2442551]	ENSMUSG00000025937
49	1	13653985	13686937	13670461	13653985	13686937	1	X Kell blood group precursor related family member 9 homolog [Source:MarkerSymbol;Acc:MGI:2686466]	ENSMUSG00000067813
1512	1	13759548	13759674	13759611	13759674	13759548	-1	Small nucleolar RNA SNORA17 [Source: RFAM 8.0] [Source: RFAM 8.0]	ENSMUSG00000077368
50	1	13771097	13772105	13771601	13772105	13771097	-1		ENSMUSG00000068283
51	1	14154172	14295413	14224792	14295413	14154172	-1	eyes absent 1 homolog (Drosophila) [Source:MarkerSymbol;Acc:MGI:109344]	ENSMUSG00000025932
52	1	14738560	14741180	14739870	14741180	14738560	-1	musculin [Source:MarkerSymbol;Acc:MGI:1333884]	ENSMUSG00000025930
53	1	14740668	14743587	14742128	14740668	14743587	1	predicted gene, ENSMUSG00000054493 [Source:MarkerSymbol;Acc:MGI:3642739]	ENSMUSG00000054493
54	1	14825083	14825370	14825227	14825370	14825083	-1	SMT3 suppressor of mif two 3 homolog 2 (yeast) [Source:MarkerSymbol;Acc:MGI:2158813]	ENSMUSG00000067809
55	1	14850212	14851232	14850722	14850212	14851232	1	ribosomal protein L5 (Rpl5), mRNA [Source:RefSeq_dna;Acc:NM_016980]	ENSMUSG00000059478
56	1	14857862	14904076	14880969	14904076	14857862	-1	transient receptor potential cation channel, subfamily A, member 1 [Source:MarkerSymbol;Acc:MGI:3522699]	ENSMUSG00000032769
1548	1	15057646	15057716	15057681	15057646	15057716	1		ENSMUSG00000076374
57	1	15254013	15254447	15254230	15254447	15254013	-1		ENSMUSG00000073737
58	1	15696229	15699511	15697870	15696229	15699511	1	potassium voltage gated channel, Shab-related subfamily, member 2 [Source:MarkerSymbol;Acc:MGI:99632]	ENSMUSG00000072447
1518	1	15743046	15743177	15743112	15743046	15743177	1	Small nucleolar RNA SNORA17 [Source: RFAM 8.0] [Source: RFAM 8.0]	ENSMUSG00000077377
59	1	15790872	15828645	15809758	15790872	15828645	1	telomeric repeat binding factor 1 [Source:MarkerSymbol;Acc:MGI:109634]	ENSMUSG00000025925
60	1	15839076	15877936	15858506	15877936	15839076	-1	gene model 106, (NCBI) [Source:MarkerSymbol;Acc:MGI:2684952]	ENSMUSG00000032719
1369	1	16038549	16039102	16038825	16038549	16039102	1		ENSMUSG00000073736
61	1	16051191	16078539	16064865	16078539	16051191	-1	RIKEN cDNA 4930444P10 gene [Source:MarkerSymbol;Acc:MGI:1923049]	ENSMUSG00000067795
62	1	16086512	16089621	16088066	16089621	16086512	-1	ribosomal protein L7 [Source:MarkerSymbol;Acc:MGI:98073]	ENSMUSG00000043716
63	1	16091096	16117764	16104430	16091096	16117764	1	retinol dehydrogenase 10 (all-trans) [Source:MarkerSymbol;Acc:MGI:1924238]	ENSMUSG00000025921
64	1	16214024	16504455	16359240	16504455	16214024	-1	staufen (RNA binding protein) homolog 2 (Drosophila) [Source:MarkerSymbol;Acc:MGI:1352508]	ENSMUSG00000025920
65	1	16529148	16588929	16559038	16588929	16529148	-1	ubiquitin-conjugating enzyme E2W (putative) [Source:MarkerSymbol;Acc:MGI:1914049]	ENSMUSG00000025939
66	1	16628502	16631044	16629773	16631044	16628502	-1	transcription elongation factor B (SIII), polypeptide 1 [Source:MarkerSymbol;Acc:MGI:1915173]	ENSMUSG00000042730
1370	1	16648250	16648876	16648563	16648876	16648250	-1		ENSMUSG00000044232
67	1	16650421	16663489	16656955	16650421	16663489	1	transmembrane protein 70 (Tmem70), transcript variant 1, mRNA [Source:RefSeq_dna;Acc:NM_027415]	ENSMUSG00000025940
68	1	16673647	16694819	16684233	16673647	16694819	1	lymphocyte antigen 96 [Source:MarkerSymbol;Acc:MGI:1341909]	ENSMUSG00000025779
69	1	16753484	16755352	16754418	16755352	16753484	-1		ENSMUSG00000059678
1371	1	16981883	16982187	16982035	16982187	16981883	-1		ENSMUSG00000054314
70	1	16982678	17083012	17032845	17083012	16982678	-1	junctophilin 1 [Source:MarkerSymbol;Acc:MGI:1891495]	ENSMUSG00000042686
71	1	17130611	17149485	17140048	17130611	17149485	1	ganglioside-induced differentiation-associated-protein 1 [Source:MarkerSymbol;Acc:MGI:1338002]	ENSMUSG00000025777
72	1	17414254	17414742	17414498	17414742	17414254	-1		ENSMUSG00000056963
73	1	17587118	17613034	17600076	17587118	17613034	1	peptidase inhibitor 15 [Source:MarkerSymbol;Acc:MGI:1934659]	ENSMUSG00000067780
74	1	17712302	17749910	17731106	17712302	17749910	1	cysteine-rich secretory protein LCCL domain containing 1 [Source:MarkerSymbol;Acc:MGI:1934666]	ENSMUSG00000025776
75	1	18100405	18131110	18115757	18131110	18100405	-1	cysteine-rich secretory protein 4 [Source:MarkerSymbol;Acc:MGI:1925331]	ENSMUSG00000025774
76	1	18195267	18208778	18202023	18208778	18195267	-1	predicted gene, EG574082 [Source:MarkerSymbol;Acc:MGI:3646526]	ENSMUSG00000070977
77	1	18221687	18222657	18222172	18222657	18221687	-1	predicted gene, EG654460 [Source:MarkerSymbol;Acc:MGI:3648148]	ENSMUSG00000073735
78	1	18236194	18250352	18243273	18250352	18236194	-1	defensin beta 41 [Source:MarkerSymbol;Acc:MGI:1924923]	ENSMUSG00000067773
79	1	19088234	19151562	19119898	19088234	19151562	1	transcription factor AP-2, delta [Source:MarkerSymbol;Acc:MGI:2153466]	ENSMUSG00000042596
1372	1	19138524	19139180	19138852	19139180	19138524	-1	similar to High mobility group protein 1 (HMG-1) (High mobility group protein B1) (Amphoterin) (Heparin-binding protein p30) (LOC669271), mRNA [Source:RefSeq_dna;Acc:XR_002460]	ENSMUSG00000060128
80	1	19194128	19223948	19209038	19194128	19223948	1	transcription factor AP-2 beta [Source:MarkerSymbol;Acc:MGI:104672]	ENSMUSG00000025927
81	1	19222852	19305924	19264388	19305924	19222852	-1		ENSMUSG00000060361
82	1	19317508	19318403	19317956	19317508	19318403	1		ENSMUSG00000045614
83	1	19608286	19608426	19608356	19608286	19608426	1	Notch gene homolog 4 (Drosophila) [Source:MarkerSymbol;Acc:MGI:107471]	ENSMUSG00000067766
84	1	20042930	20603208	20323069	20603208	20042930	-1	polycystic kidney and hepatic disease 1 [Source:MarkerSymbol;Acc:MGI:2155808]	ENSMUSG00000043760
1618	1	20429962	20430063	20430012	20430063	20429962	-1	U6 spliceosomal RNA [Source: RFAM 8.0] [Source: RFAM 8.0]	ENSMUSG00000070175
1571	1	20664161	20664233	20664197	20664161	20664233	1	mmu-mir-206 [Source:miRBase;Acc:MI0000249]	ENSMUSG00000065559
1455	1	20667920	20668038	20667979	20667920	20668038	1	mmu-mir-133b [Source:miRBase;Acc:MI0000821]	ENSMUSG00000065480
85	1	20716056	20719647	20717852	20716056	20719647	1	interleukin 17A [Source:MarkerSymbol;Acc:MGI:107364]	ENSMUSG00000025929
86	1	20762302	20769421	20765862	20769421	20762302	-1	interleukin 17F [Source:MarkerSymbol;Acc:MGI:2676631]	ENSMUSG00000041872
87	1	20788124	20805411	20796768	20805411	20788124	-1	minichromosome maintenance deficient 3 (S. cerevisiae) [Source:MarkerSymbol;Acc:MGI:101845]	ENSMUSG00000041859
1497	1	20900561	20900691	20900626	20900691	20900561	-1	Small nucleolar RNA SNORA17 [Source: RFAM 8.0] [Source: RFAM 8.0]	ENSMUSG00000077314
88	1	20902997	20924208	20913603	20902997	20924208	1	progestin and adipoQ receptor family member VIII [Source:MarkerSymbol;Acc:MGI:1921479]	ENSMUSG00000025931
89	1	20936839	20975990	20956415	20936839	20975990	1	EF-hand domain (C-terminal) containing 1 [Source:MarkerSymbol;Acc:MGI:1919127]	ENSMUSG00000041809
90	1	20986548	21064376	21025462	21064376	20986548	-1	translocating chain-associating membrane protein 2 [Source:MarkerSymbol;Acc:MGI:1924817]	ENSMUSG00000041779
91	1	21203780	21215316	21209548	21203780	21215316	1	transmembrane protein 14A [Source:MarkerSymbol;Acc:MGI:1922962]	ENSMUSG00000025933
92	1	21225764	21250361	21238062	21225764	21250361	1	glutathione S-transferase, alpha 3 [Source:MarkerSymbol;Acc:MGI:95856]	ENSMUSG00000025934
1373	1	21257554	21258060	21257807	21257554	21258060	1		ENSMUSG00000046847
93	1	21270397	21283463	21276930	21283463	21270397	-1	predicted gene, EG241041 [Source:MarkerSymbol;Acc:MGI:3647976]	ENSMUSG00000025936
94	1	21335065	21337350	21336207	21335065	21337350	1	cDNA sequence BC099381 [Source:MarkerSymbol;Acc:MGI:3583007]	ENSMUSG00000067750
95	1	21353482	21354894	21354188	21353482	21354894	1	cDNA sequence BC099381 [Source:MarkerSymbol;Acc:MGI:3583007]	ENSMUSG00000041722
96	1	21369088	21370121	21369604	21369088	21370121	1		ENSMUSG00000073732
97	1	21387314	21946732	21667023	21946732	21387314	-1	potassium voltage-gated channel, subfamily Q, member 5 [Source:MarkerSymbol;Acc:MGI:1924937]	ENSMUSG00000028033
1374	1	22015195	22015766	22015481	22015766	22015195	-1	similar to coated vesicle membrane protein (LOC435612), mRNA [Source:RefSeq_dna;Acc:XR_003636]	ENSMUSG00000049718
98	1	22271402	22759999	22515700	22759999	22271402	-1	regulating synaptic membrane exocytosis 1 [Source:MarkerSymbol;Acc:MGI:2152971]	ENSMUSG00000041670
99	1	23056045	23056506	23056275	23056506	23056045	-1	RIKEN cDNA 4933415F23 gene [Source:MarkerSymbol;Acc:MGI:1914005]	ENSMUSG00000073730
100	1	23210262	23210681	23210472	23210681	23210262	-1	predicted gene, EG623356 [Source:MarkerSymbol;Acc:MGI:3644588]	ENSMUSG00000073729
1596	1	23226544	23226614	23226579	23226544	23226614	1	mmu-mir-30a [Source:miRBase;Acc:MI0000144]	ENSMUSG00000065405
1622	1	23245976	23246059	23246018	23245976	23246059	1	mmu-mir-30c-2 [Source:miRBase;Acc:MI0000548]	ENSMUSG00000065567
101	1	23324066	23333333	23328700	23333333	23324066	-1	opioid growth factor receptor-like 1 [Source:MarkerSymbol;Acc:MGI:1917405]	ENSMUSG00000026158
102	1	23716293	23802868	23759581	23716293	23802868	1	beta-1,3-glucuronyltransferase 2 (glucuronosyltransferase S) [Source:MarkerSymbol;Acc:MGI:2389490]	ENSMUSG00000026156
103	1	23799900	23876564	23838232	23876564	23799900	-1	stromal membrane-associated protein 1 [Source:MarkerSymbol;Acc:MGI:2138261]	ENSMUSG00000026155
104	1	23950221	23959915	23955068	23959915	23950221	-1	RIKEN cDNA 1110058L19 gene [Source:MarkerSymbol;Acc:MGI:1915252]	ENSMUSG00000026154
105	1	23959780	23960169	23959974	23959780	23960169	1	predicted gene, ENSMUSG00000053484 [Source:MarkerSymbol;Acc:MGI:3641744]	ENSMUSG00000053484
106	1	23965370	24040849	24003110	24040849	23965370	-1	RIKEN cDNA 4921533L14 gene [Source:MarkerSymbol;Acc:MGI:1915437]	ENSMUSG00000026153
107	1	24131975	24206948	24169461	24131975	24206948	1	procollagen, type IX, alpha 1 [Source:MarkerSymbol;Acc:MGI:88465]	ENSMUSG00000026147
108	1	24218269	24541686	24379977	24541686	24218269	-1	procollagen, type XIX, alpha 1 [Source:MarkerSymbol;Acc:MGI:1095415]	ENSMUSG00000026141
1536	1	24503116	24503252	24503184	24503252	24503116	-1	Small nucleolar RNA SNORA64/SNORA10 family [Source: RFAM 8.0] [Source: RFAM 8.0]	ENSMUSG00000077463
109	1	24566679	24566975	24566827	24566975	24566679	-1		ENSMUSG00000067736
110	1	24633032	24707573	24670302	24633032	24707573	1	LMBR1 domain containing 1 [Source:MarkerSymbol;Acc:MGI:1915671]	ENSMUSG00000073725
111	1	24707888	24710844	24709366	24707888	24710844	1	LMBR1 domain containing 1 [Source:MarkerSymbol;Acc:MGI:1915671]	ENSMUSG00000026139
112	1	24956487	24957305	24956896	24956487	24957305	1		ENSMUSG00000070451
113	1	25012714	25771306	25392010	25771306	25012714	-1	brain-specific angiogenesis inhibitor 3 [Source:MarkerSymbol;Acc:MGI:2441837]	ENSMUSG00000033569
1507	1	25223991	25224097	25224044	25224097	25223991	-1	U6 spliceosomal RNA [Source: RFAM 8.0] [Source: RFAM 8.0]	ENSMUSG00000064910
114	1	25775203	25776424	25775813	25775203	25776424	1	predicted gene, ENSMUSG00000052558 [Source:MarkerSymbol;Acc:MGI:3642830]	ENSMUSG00000052558
115	1	26626360	26632006	26629183	26632006	26626360	-1	RIKEN cDNA 4931408C20 gene [Source:MarkerSymbol;Acc:MGI:3588222]	ENSMUSG00000073722
1469	1	26903649	26903767	26903708	26903767	26903649	-1	5S ribosomal RNA [Source: RFAM 8.0] [Source: RFAM 8.0]	ENSMUSG00000065125
116	1	27934552	27936036	27935294	27934552	27936036	1		ENSMUSG00000067727
117	1	28525044	28525319	28525182	28525319	28525044	-1	predicted gene, EG665903 (EG665903), misc RNA [Source:RefSeq_dna;Acc:XR_001800]	ENSMUSG00000054264
118	1	28720668	28724798	28722733	28724798	28720668	-1	gene model 597, (NCBI) (Gm597), mRNA [Source:RefSeq_dna;Acc:NM_001013750]	ENSMUSG00000048411
119	1	28744970	28747267	28746118	28747267	28744970	-1		ENSMUSG00000055080
120	1	28882581	28882886	28882733	28882581	28882886	1		ENSMUSG00000058590
1616	1	29225512	29225621	29225566	29225621	29225512	-1	Y RNA [Source: RFAM 8.0] [Source: RFAM 8.0]	ENSMUSG00000064433
1494	1	29930480	29930589	29930534	29930480	29930589	1		ENSMUSG00000077073
121	1	30663100	30664507	30663804	30664507	30663100	-1	predicted gene, ENSMUSG00000053185 [Source:MarkerSymbol;Acc:MGI:3642391]	ENSMUSG00000053185
122	1	30714446	30716353	30715400	30714446	30716353	1		ENSMUSG00000001061
123	1	30748348	30818240	30783294	30818240	30748348	-1	PHD finger protein 3 [Source:MarkerSymbol;Acc:MGI:2446126]	ENSMUSG00000048874
124	1	30886138	30894291	30890214	30894291	30886138	-1	protein tyrosine phosphatase 4a1 [Source:MarkerSymbol;Acc:MGI:1277096]	ENSMUSG00000026064
125	1	30921789	30943454	30932621	30943454	30921789	-1		ENSMUSG00000073720
126	1	31120981	31149273	31135127	31120981	31149273	1	glutamate-ammonia ligase (glutamine synthetase) domain containing 1 [Source:MarkerSymbol;Acc:MGI:2672844]	ENSMUSG00000050217
127	1	31147697	31167202	31157449	31167202	31147697	-1	RIKEN cDNA 4931428L18 gene [Source:MarkerSymbol;Acc:MGI:1918238]	ENSMUSG00000026060
128	1	31167385	31168833	31168109	31167385	31168833	1	RIKEN cDNA 4930521A18 gene [Source:MarkerSymbol;Acc:MGI:1921958]	ENSMUSG00000026063
1589	1	31204139	31204265	31204202	31204265	31204139	-1	Small nucleolar RNA SNORA17 [Source: RFAM 8.0] [Source: RFAM 8.0]	ENSMUSG00000077664
129	1	31219439	31232252	31225845	31219439	31232252	1		ENSMUSG00000067721
130	1	31560057	31560882	31560469	31560057	31560882	1		ENSMUSG00000070960
131	1	31680602	31681438	31681020	31680602	31681438	1		ENSMUSG00000070958
132	1	32117273	32602829	32360051	32117273	32602829	1	KH domain containing, RNA binding, signal transduction associated 2 [Source:MarkerSymbol;Acc:MGI:2159649]	ENSMUSG00000026058
1580	1	32157679	32157785	32157732	32157785	32157679	-1	U6 spliceosomal RNA [Source: RFAM 8.0] [Source: RFAM 8.0]	ENSMUSG00000064688
133	1	32464109	32465545	32464827	32465545	32464109	-1	predicted gene, ENSMUSG00000049830 [Source:MarkerSymbol;Acc:MGI:3641910]	ENSMUSG00000049830
134	1	32489937	32490680	32490309	32490680	32489937	-1	predicted gene, EG408191 [Source:MarkerSymbol;Acc:MGI:3644687]	ENSMUSG00000067716
1599	1	33238222	33238330	33238276	33238222	33238330	1	U6 spliceosomal RNA [Source: RFAM 8.0] [Source: RFAM 8.0]	ENSMUSG00000065223
1447	1	33367279	33367384	33367331	33367279	33367384	1	U6 spliceosomal RNA [Source: RFAM 8.0] [Source: RFAM 8.0]	ENSMUSG00000065260
135	1	33398361	33614326	33506343	33614326	33398361	-1	DNA primase, p58 subunit [Source:MarkerSymbol;Acc:MGI:97758]	ENSMUSG00000026134
136	1	33614370	33615252	33614811	33614370	33615252	1	RIKEN cDNA 1700001G17 gene [Source:MarkerSymbol;Acc:MGI:1914753]	ENSMUSG00000044744
137	1	33664442	33686043	33675242	33664442	33686043	1	RAB23, member RAS oncogene family [Source:MarkerSymbol;Acc:MGI:99833]	ENSMUSG00000004768
138	1	33690030	33702317	33696174	33702317	33690030	-1	Bcl2-associated athanogene 2 [Source:MarkerSymbol;Acc:MGI:1891254]	ENSMUSG00000042215
139	1	33706299	33758973	33732636	33758973	33706299	-1	zinc finger protein 451 [Source:MarkerSymbol;Acc:MGI:2137896]	ENSMUSG00000042197
140	1	33780668	33783226	33781947	33783226	33780668	-1		ENSMUSG00000042188
141	1	33797334	33852167	33824750	33852167	33797334	-1	RIKEN cDNA B230209C24 gene [Source:MarkerSymbol;Acc:MGI:2444572]	ENSMUSG00000042182
142	1	33852818	34253198	34053008	33852818	34253198	1	dystonin [Source:MarkerSymbol;Acc:MGI:104627]	ENSMUSG00000026131
143	1	34312298	34313552	34312925	34312298	34313552	1		ENSMUSG00000061352
144	1	34381222	34384218	34382720	34384218	34381222	-1	coiled-coil domain containing 115 [Source:MarkerSymbol;Acc:MGI:1916918]	ENSMUSG00000042111
145	1	34384587	34389016	34386801	34384587	34389016	1	IMP4, U3 small nucleolar ribonucleoprotein, homolog (yeast) [Source:MarkerSymbol;Acc:MGI:106572]	ENSMUSG00000026127
146	1	34391308	34391526	34391417	34391308	34391526	1	Bone marrow macrophage cDNA, RIKEN full-length enriched library, clone:G530004B13 product:hypothetical protein, full insert sequence. [Source:Uniprot/SPTREMBL;Acc:Q3UEB9]	ENSMUSG00000073707
147	1	34404304	34418332	34411318	34404304	34418332	1	protein tyrosine phosphatase, non-receptor type 18 [Source:MarkerSymbol;Acc:MGI:108410]	ENSMUSG00000026126
148	1	34442976	34447608	34445292	34442976	34447608	1	testicular serine protease 1 [Source:MarkerSymbol;Acc:MGI:1270856]	ENSMUSG00000026125
149	1	34480194	34488857	34484526	34480194	34488857	1	cripto, FRL-1, cryptic family 1 [Source:MarkerSymbol;Acc:MGI:109448]	ENSMUSG00000026124
150	1	34496886	34505466	34501176	34505466	34496886	-1	testicular serine protease 2 [Source:MarkerSymbol;Acc:MGI:1270857]	ENSMUSG00000037529
151	1	34523770	34524159	34523964	34524159	34523770	-1	RIKEN cDNA 1700101I19 gene [Source:MarkerSymbol;Acc:MGI:1920839]	ENSMUSG00000045815
152	1	34524273	34535490	34529881	34524273	34535490	1	RIKEN cDNA 9430069J07 gene [Source:MarkerSymbol;Acc:MGI:3026939]	ENSMUSG00000045174
1375	1	34667630	34668847	34668238	34667630	34668847	1		ENSMUSG00000046858
153	1	34676661	34689989	34683325	34676661	34689989	1		ENSMUSG00000070955
154	1	34746268	34757300	34751784	34746268	34757300	1	Rho guanine nucleotide exchange factor (GEF) 4 [Source:MarkerSymbol;Acc:MGI:2442507]	ENSMUSG00000037509
155	1	34757767	34787596	34772681	34787596	34757767	-1	cDNA sequence BC043098 [Source:MarkerSymbol;Acc:MGI:2448487]	ENSMUSG00000037503
156	1	34794538	34824123	34809330	34794538	34824123	1	pleckstrin homology domain containing, family B (evectins) member 2 [Source:MarkerSymbol;Acc:MGI:2385825]	ENSMUSG00000026123
1376	1	34874664	34875189	34874926	34874664	34875189	1		ENSMUSG00000050683
1471	1	35123502	35123630	35123566	35123630	35123502	-1	Small nucleolar RNA SNORA17 [Source: RFAM 8.0] [Source: RFAM 8.0]	ENSMUSG00000077231
1534	1	35706148	35706252	35706200	35706148	35706252	1	U6 spliceosomal RNA [Source: RFAM 8.0] [Source: RFAM 8.0]	ENSMUSG00000064601
157	1	35996441	36188822	36092631	36188822	35996441	-1	UDP-glucose ceramide glucosyltransferase-like 1 [Source:MarkerSymbol;Acc:MGI:2443162]	ENSMUSG00000037470
158	1	36012946	36050990	36031968	36012946	36050990	1	heparan sulfate 6-O-sulfotransferase 1 [Source:MarkerSymbol;Acc:MGI:1354958]	ENSMUSG00000045216
159	1	36209143	36217971	36213557	36217971	36209143	-1	lung-inducible neuralized-related C3HC4 RING domain protein [Source:MarkerSymbol;Acc:MGI:2429944]	ENSMUSG00000047180
160	1	36252300	36268575	36260438	36252300	36268575	1	AT rich interactive domain 5A (Mrf1 like) [Source:MarkerSymbol;Acc:MGI:2443039]	ENSMUSG00000037447
161	1	36280276	36313727	36297002	36313727	36280276	-1	K1310_MOUSE Isoform 2 of A2RSY1 - Mus musculus (Mouse) [Source:Uniprot/Varsplic;Acc:A2RSY1-2]	ENSMUSG00000010453
162	1	36353937	36366320	36360129	36353937	36366320	1		ENSMUSG00000037432
163	1	36367732	36389785	36378758	36389785	36367732	-1	lectin, mannose-binding 2-like [Source:MarkerSymbol;Acc:MGI:2443010]	ENSMUSG00000001143
164	1	36416166	36453304	36434735	36416166	36453304	1	cyclin M4 [Source:MarkerSymbol;Acc:MGI:2151060]	ENSMUSG00000037408
165	1	36456422	36472783	36464602	36456422	36472783	1	cyclin M3 [Source:MarkerSymbol;Acc:MGI:2151055]	ENSMUSG00000001138
166	1	36474740	36491747	36483244	36491747	36474740	-1	ankyrin repeat domain 23 [Source:MarkerSymbol;Acc:MGI:1925571]	ENSMUSG00000067653
167	1	36493188	36502105	36497646	36502105	36493188	-1	sema domain, immunoglobulin domain (Ig), transmembrane domain (TM) and short cytoplasmic domain, (semaphorin) 4C [Source:MarkerSymbol;Acc:MGI:109252]	ENSMUSG00000026121
168	1	36507245	36537878	36522561	36537878	36507245	-1	RIKEN cDNA 1700024G10 gene [Source:MarkerSymbol;Acc:MGI:1919099]	ENSMUSG00000073704
169	1	36544509	36627632	36586071	36627632	36544509	-1	cDNA sequence BC050210 [Source:MarkerSymbol;Acc:MGI:3026913]	ENSMUSG00000046337
170	1	36636084	36637931	36637008	36636084	36637931	1	cytochrome c oxidase, subunit Vb [Source:MarkerSymbol;Acc:MGI:88475]	ENSMUSG00000061518
171	1	36642662	36654487	36648574	36654487	36642662	-1	ARP1 actin-related protein 1 homolog B (yeast) [Source:MarkerSymbol;Acc:MGI:1917446]	ENSMUSG00000037351
172	1	36706371	36727362	36716867	36706371	36727362	1	zeta-chain (TCR) associated protein kinase [Source:MarkerSymbol;Acc:MGI:99613]	ENSMUSG00000026117
173	1	36737467	36833872	36785669	36833872	36737467	-1	transmembrane protein 131 [Source:MarkerSymbol;Acc:MGI:1927110]	ENSMUSG00000026116
174	1	36870472	36870630	36870551	36870630	36870472	-1	predicted gene, ENSMUSG00000073703 [Source:MarkerSymbol;Acc:MGI:3641781]	ENSMUSG00000073703
175	1	36902476	36903226	36902851	36903226	36902476	-1		ENSMUSG00000063328
1613	1	36949985	36950103	36950044	36949985	36950103	1	5S ribosomal RNA [Source: RFAM 8.0] [Source: RFAM 8.0]	ENSMUSG00000070201
176	1	36971142	37021541	36996342	36971142	37021541	1	RIKEN cDNA A230074B11 gene [Source:MarkerSymbol;Acc:MGI:2443831]	ENSMUSG00000050122
177	1	37098551	37132156	37115353	37098551	37132156	1	RIKEN cDNA 4921511C04 gene [Source:MarkerSymbol;Acc:MGI:1918103]	ENSMUSG00000026115
178	1	37163807	37207932	37185869	37163807	37207932	1	cyclic nucleotide gated channel alpha 3 [Source:MarkerSymbol;Acc:MGI:1341818]	ENSMUSG00000026114
179	1	37302465	37352805	37327635	37302465	37352805	1	inositol polyphosphate-4-phosphatase, type I [Source:MarkerSymbol;Acc:MGI:1931123]	ENSMUSG00000026113
180	1	37362322	37362645	37362484	37362645	37362322	-1	RIKEN cDNA 6330578E17 gene [Source:MarkerSymbol;Acc:MGI:1923428]	ENSMUSG00000062395
181	1	37363735	37374524	37369129	37374524	37363735	-1	RIKEN cDNA 6330578E17 gene [Source:MarkerSymbol;Acc:MGI:1923428]	ENSMUSG00000026112
182	1	37374718	37383670	37379194	37374718	37383670	1	unc-50 homolog (C. elegans) [Source:MarkerSymbol;Acc:MGI:1914637]	ENSMUSG00000026111
183	1	37389102	37480678	37434890	37480678	37389102	-1	mannoside acetylglucosaminyltransferase 4, isoenzyme A [Source:MarkerSymbol;Acc:MGI:2662992]	ENSMUSG00000026110
184	1	37556223	37664357	37610290	37664357	37556223	-1	RIKEN cDNA 2010300C02 gene [Source:MarkerSymbol;Acc:MGI:1919347]	ENSMUSG00000026090
185	1	37699320	37809844	37754582	37809844	37699320	-1	testis specific 10 [Source:MarkerSymbol;Acc:MGI:2685063]	ENSMUSG00000060771
186	1	37816752	37821933	37819342	37816752	37821933	1	predicted gene, EG623661 [Source:MarkerSymbol;Acc:MGI:3645211]	ENSMUSG00000037216
187	1	37823436	37834891	37829164	37834891	37823436	-1	MIT, microtubule interacting and transport, domain containing 1 [Source:MarkerSymbol;Acc:MGI:1916278]	ENSMUSG00000026088
188	1	37835099	37842881	37838990	37835099	37842881	1	mitochondrial ribosomal protein L30 [Source:MarkerSymbol;Acc:MGI:1333820]	ENSMUSG00000026087
189	1	37850469	37861039	37855754	37861039	37850469	-1	gene model 776, (NCBI) [Source:MarkerSymbol;Acc:MGI:2685622]	ENSMUSG00000061584
190	1	37891284	37902305	37896794	37902305	37891284	-1	RIKEN cDNA 2300002O18 gene [Source:MarkerSymbol;Acc:MGI:1916791]	ENSMUSG00000026085
191	1	37929736	37941751	37935744	37941751	37929736	-1	thioredoxin domain containing 9 [Source:MarkerSymbol;Acc:MGI:2138153]	ENSMUSG00000058407
192	1	37942556	38000125	37971340	37942556	38000125	1	eukaryotic translation initiation factor 5B [Source:MarkerSymbol;Acc:MGI:2441772]	ENSMUSG00000026083
193	1	37997330	38074208	38035769	38074208	37997330	-1	REV1 homolog (S. cerevisiae) [Source:MarkerSymbol;Acc:MGI:1929074]	ENSMUSG00000026082
194	1	38123995	38609501	38366748	38609501	38123995	-1	AF4/FMR2 family, member 3 [Source:MarkerSymbol;Acc:MGI:106927]	ENSMUSG00000037138
195	1	38738228	38765761	38751994	38765761	38738228	-1	LON peptidase N-terminal domain and ring finger 2 [Source:MarkerSymbol;Acc:MGI:1920209]	ENSMUSG00000048814
196	1	38808413	38842707	38825560	38842707	38808413	-1	carbohydrate sulfotransferase 10 [Source:MarkerSymbol;Acc:MGI:2138283]	ENSMUSG00000026080
197	1	38883695	38894824	38889259	38883695	38894824	1	neuromedin S [Source:MarkerSymbol;Acc:MGI:3583618]	ENSMUSG00000067604
198	1	38932360	38941782	38937071	38932360	38941782	1	phosducin-like 3 [Source:MarkerSymbol;Acc:MGI:1916083]	ENSMUSG00000026078
199	1	39138750	39306732	39222741	39138750	39306732	1	neuronal PAS domain protein 2 [Source:MarkerSymbol;Acc:MGI:109232]	ENSMUSG00000026077
200	1	39312695	39315879	39314287	39312695	39315879	1	ribosomal protein L31 [Source:MarkerSymbol;Acc:MGI:2149632]	ENSMUSG00000073702
201	1	39316046	39423281	39369664	39423281	39316046	-1	TBC1 domain family, member 8 [Source:MarkerSymbol;Acc:MGI:1927225]	ENSMUSG00000003134
1549	1	39464079	39464292	39464185	39464079	39464292	1	Small nucleolar RNA U3 [Source: RFAM 8.0] [Source: RFAM 8.0]	ENSMUSG00000065629
202	1	39480348	39491437	39485892	39480348	39491437	1	Uncharacterized protein C2orf29 homolog. [Source:Uniprot/SWISSPROT;Acc:Q9CWN7]	ENSMUSG00000003135
1601	1	39493291	39493400	39493345	39493400	39493291	-1	Small nucleolar RNA SNORD89 [Source: RFAM 8.0] [Source: RFAM 8.0]	ENSMUSG00000077704
203	1	39495847	39521951	39508899	39521951	39495847	-1	ring finger protein 149 [Source:MarkerSymbol;Acc:MGI:2677438]	ENSMUSG00000048234
1521	1	39518292	39518421	39518356	39518421	39518292	-1	Small nucleolar RNA SNORA33 [Source: RFAM 8.0] [Source: RFAM 8.0]	ENSMUSG00000064936
1377	1	39541959	39542552	39542255	39542552	39541959	-1	predicted gene, EG329126 (EG329126), misc RNA [Source:RefSeq_dna;Acc:XR_001880]	ENSMUSG00000057553
204	1	39562952	39595728	39579340	39595728	39562952	-1	cellular repressor of E1A-stimulated genes 2 [Source:MarkerSymbol;Acc:MGI:1928333]	ENSMUSG00000050967
205	1	39610030	39616759	39613394	39616759	39610030	-1		ENSMUSG00000057173
206	1	39845716	39969471	39907594	39845716	39969471	1	mitogen-activated protein kinase kinase kinase kinase 4 [Source:MarkerSymbol;Acc:MGI:1349394]	ENSMUSG00000026074
207	1	40029314	40069773	40049544	40029314	40069773	1	interleukin 1 receptor, type II [Source:MarkerSymbol;Acc:MGI:96546]	ENSMUSG00000026073
208	1	40169626	40260723	40215174	40169626	40260723	1	interleukin 1 receptor, type I [Source:MarkerSymbol;Acc:MGI:96545]	ENSMUSG00000026072
209	1	40269236	40312097	40290666	40269236	40312097	1	interleukin 1 receptor-like 2 [Source:MarkerSymbol;Acc:MGI:1913107]	ENSMUSG00000070942
210	1	40374143	40409958	40392051	40374143	40409958	1	interleukin 1 receptor-like 1 [Source:MarkerSymbol;Acc:MGI:98427]	ENSMUSG00000026069
211	1	40410552	40445379	40427966	40410552	40445379	1	interleukin 18 receptor 1 [Source:MarkerSymbol;Acc:MGI:105383]	ENSMUSG00000026070
212	1	40459908	40493851	40476880	40459908	40493851	1	interleukin 18 receptor accessory protein [Source:MarkerSymbol;Acc:MGI:1338888]	ENSMUSG00000026068
213	1	40524747	40574199	40549473	40524747	40574199	1	solute carrier family 9 (sodium/hydrogen exchanger), member 4 [Source:MarkerSymbol;Acc:MGI:105074]	ENSMUSG00000026065
214	1	40626171	40713812	40669991	40626171	40713812	1	solute carrier family 9 (sodium/hydrogen exchanger), member 2 [Source:MarkerSymbol;Acc:MGI:105075]	ENSMUSG00000026062
215	1	40716586	40735209	40725898	40735209	40716586	-1	major facilitator superfamily domain containing 9 [Source:MarkerSymbol;Acc:MGI:2443548]	ENSMUSG00000041945
216	1	40808280	40808765	40808522	40808765	40808280	-1		ENSMUSG00000057359
217	1	42047853	42080075	42063964	42047853	42080075	1		ENSMUSG00000068480
218	1	42174272	42175654	42174963	42174272	42175654	1	predicted gene, ENSMUSG00000053640 [Source:MarkerSymbol;Acc:MGI:3641924]	ENSMUSG00000053640
219	1	42592924	42611458	42602191	42611458	42592924	-1	RIKEN cDNA 2610017I09 gene [Source:MarkerSymbol;Acc:MGI:1913547]	ENSMUSG00000060424
220	1	42641692	42643185	42642438	42641692	42643185	1	POU domain, class 3, transcription factor 3 [Source:MarkerSymbol;Acc:MGI:102564]	ENSMUSG00000045515
221	1	42795829	42850226	42823027	42795829	42850226	1	mitochondrial ribosomal protein S9 [Source:MarkerSymbol;Acc:MGI:1916777]	ENSMUSG00000060679
1530	1	42811231	42811364	42811297	42811364	42811231	-1	Small nucleolar RNA SNORA17 [Source: RFAM 8.0] [Source: RFAM 8.0]	ENSMUSG00000077448
222	1	42897418	42979995	42938706	42897418	42979995	1	G protein-coupled receptor 45 [Source:MarkerSymbol;Acc:MGI:2135882]	ENSMUSG00000041907
223	1	42991815	43043168	43017491	43043168	42991815	-1	transforming growth factor, beta receptor associated protein 1 [Source:MarkerSymbol;Acc:MGI:2447427]	ENSMUSG00000070939
224	1	43037134	43038381	43037758	43037134	43038381	1	RIKEN cDNA 8430432A02 gene [Source:MarkerSymbol;Acc:MGI:1918774]	ENSMUSG00000041878
225	1	43043256	43060492	43051874	43043256	43060492	1	expressed sequence AI597479 [Source:MarkerSymbol;Acc:MGI:2138299]	ENSMUSG00000010290
226	1	43067620	43141307	43104464	43141307	43067620	-1	four and a half LIM domains 2 [Source:MarkerSymbol;Acc:MGI:1338762]	ENSMUSG00000008136
227	1	43133702	43134184	43133943	43133702	43134184	1	ribosomal protein L29 [Source:MarkerSymbol;Acc:MGI:99687]	ENSMUSG00000067579
1378	1	43215239	43215669	43215454	43215239	43215669	1	similar to 60S ribosomal protein L17 (L23) (Amino acid starvation-induced protein) (ASI) (LOC670340), mRNA [Source:RefSeq_dna;Acc:XR_002936]	ENSMUSG00000067451
228	1	43390297	43515060	43452679	43390297	43515060	1	non-catalytic region of tyrosine kinase adaptor protein 2 [Source:MarkerSymbol;Acc:MGI:1306821]	ENSMUSG00000066877
229	1	43675239	43687124	43681181	43675239	43687124	1	RIKEN cDNA 1500015O10 gene [Source:MarkerSymbol;Acc:MGI:1926146]	ENSMUSG00000026051
230	1	43693833	43772294	43733063	43772294	43693833	-1	UDP-glucuronate decarboxylase 1 [Source:MarkerSymbol;Acc:MGI:1915133]	ENSMUSG00000057363
1379	1	43832599	43833141	43832870	43832599	43833141	1		ENSMUSG00000051825
1380	1	43842846	43843658	43843252	43842846	43843658	1	similar to Rab-related GTP-binding protein (LOC626675), mRNA [Source:RefSeq_dna;Acc:XR_002951]	ENSMUSG00000051135
1488	1	43863323	43863432	43863377	43863432	43863323	-1		ENSMUSG00000077132
231	1	43878548	43947545	43913046	43878548	43947545	1	tripeptidyl peptidase II [Source:MarkerSymbol;Acc:MGI:102724]	ENSMUSG00000041763
232	1	43953954	43964552	43959253	43964552	43953954	-1	RIKEN cDNA A530098C11 gene [Source:MarkerSymbol;Acc:MGI:3611450]	ENSMUSG00000047343
233	1	44004515	44006482	44005499	44006482	44004515	-1		ENSMUSG00000070936
234	1	44031412	44046969	44039190	44046969	44031412	-1	RIKEN cDNA 1700029F09 gene [Source:MarkerSymbol;Acc:MGI:1922873]	ENSMUSG00000026049
235	1	44051092	44063319	44057206	44063319	44051092	-1	KDEL (Lys-Asp-Glu-Leu) containing 1 [Source:MarkerSymbol;Acc:MGI:1919300]	ENSMUSG00000026047
236	1	44063708	44089056	44076382	44063708	44089056	1	basic, immunoglobulin-like variable motif containing [Source:MarkerSymbol;Acc:MGI:2179809]	ENSMUSG00000041684
237	1	44092393	44125806	44109099	44092393	44125806	1	excision repair cross-complementing rodent repair deficiency, complementation group 5 [Source:MarkerSymbol;Acc:MGI:103582]	ENSMUSG00000026048
238	1	44148616	44163477	44156046	44163477	44148616	-1	RIKEN cDNA 4832428D23 gene [Source:MarkerSymbol;Acc:MGI:2685837]	ENSMUSG00000046828
1381	1	44408459	44408777	44408618	44408777	44408459	-1		ENSMUSG00000048774
239	1	44496057	44741372	44618715	44496057	44741372	1	GULP, engulfment adaptor PTB domain containing 1 [Source:MarkerSymbol;Acc:MGI:1920407]	ENSMUSG00000056870
240	1	44770450	44770617	44770534	44770617	44770450	-1		ENSMUSG00000067565
241	1	45272979	45290601	45281790	45272979	45290601	1	procollagen, type III, alpha 1 (Col3a1), mRNA [Source:RefSeq_dna;Acc:NM_009930]	ENSMUSG00000026043
242	1	45318877	45447828	45383353	45447828	45318877	-1	procollagen, type V, alpha 2 [Source:MarkerSymbol;Acc:MGI:88458]	ENSMUSG00000026042
1382	1	45546572	45547302	45546937	45546572	45547302	1		ENSMUSG00000062816
1583	1	45630002	45630108	45630055	45630108	45630002	-1	U6 spliceosomal RNA [Source: RFAM 8.0] [Source: RFAM 8.0]	ENSMUSG00000065010
1458	1	45691441	45691571	45691506	45691441	45691571	1	Small nucleolar RNA SNORA55 [Source: RFAM 8.0] [Source: RFAM 8.0]	ENSMUSG00000065255
243	1	45740012	45768161	45754086	45740012	45768161	1	WD repeat domain 75 [Source:MarkerSymbol;Acc:MGI:1920924]	ENSMUSG00000025995
244	1	45801878	45802333	45802106	45802333	45801878	-1		ENSMUSG00000050191
245	1	45850175	45851350	45850763	45850175	45851350	1		ENSMUSG00000046262
246	1	45852630	45870079	45861354	45870079	45852630	-1	solute carrier family 40 (iron-regulated transporter), member 1 [Source:MarkerSymbol;Acc:MGI:1315204]	ENSMUSG00000025993
247	1	45926094	45926561	45926328	45926094	45926561	1		ENSMUSG00000070896
248	1	45964618	45975015	45969816	45975015	45964618	-1	predicted gene, EG212225 [Source:MarkerSymbol;Acc:MGI:3643324]	ENSMUSG00000044457
249	1	46120132	46120428	46120280	46120132	46120428	1	dynein, axonemal, heavy chain 7b [Source:MarkerSymbol;Acc:MGI:2684953]	ENSMUSG00000073694
250	1	46234112	46305827	46269970	46234112	46305827	1	dynein, axonemal, heavy chain 7b [Source:MarkerSymbol;Acc:MGI:2684953]	ENSMUSG00000067536
1450	1	46318743	46318861	46318802	46318743	46318861	1	5S ribosomal RNA [Source: RFAM 8.0] [Source: RFAM 8.0]	ENSMUSG00000070199
251	1	46375309	46751908	46563609	46375309	46751908	1	dynein, axonemal, heavy chain 7 [Source:MarkerSymbol;Acc:MGI:2685838]	ENSMUSG00000041144
252	1	46752090	46798055	46775072	46798055	46752090	-1	solute carrier family 39 (zinc transporter), member 10 [Source:MarkerSymbol;Acc:MGI:1914515]	ENSMUSG00000025986
253	1	46836202	46951841	46894022	46951841	46836202	-1		ENSMUSG00000073691
254	1	47310189	47310917	47310553	47310917	47310189	-1		ENSMUSG00000060587
1586	1	48406680	48406838	48406759	48406838	48406680	-1	U1 spliceosomal RNA [Source: RFAM 8.0] [Source: RFAM 8.0]	ENSMUSG00000064943
255	1	48545180	48545392	48545286	48545392	48545180	-1		ENSMUSG00000073690
256	1	48676493	48676975	48676734	48676975	48676493	-1		ENSMUSG00000067514
1383	1	48826258	48827268	48826763	48826258	48827268	1	similar to uracil DNA glycosylase (LOC666909), misc RNA [Source:RefSeq_dna;Acc:XR_030975]	ENSMUSG00000057055
1384	1	49180800	49181476	49181138	49180800	49181476	1		ENSMUSG00000062636
257	1	49189161	49282791	49235976	49189161	49282791	1	RIKEN cDNA C230029F24 gene [Source:MarkerSymbol;Acc:MGI:3045370]	ENSMUSG00000051616
1385	1	49523695	49524047	49523871	49524047	49523695	-1		ENSMUSG00000073689
258	1	49866684	49866823	49866754	49866823	49866684	-1		ENSMUSG00000073688
259	1	49981948	50003023	49992486	49981948	50003023	1		ENSMUSG00000073687
260	1	50872068	51131815	51001942	50872068	51131815	1	transmembrane protein with EGF-like and two follistatin-like domains 2 [Source:MarkerSymbol;Acc:MGI:1861735]	ENSMUSG00000026109
261	1	51233671	51247505	51240588	51233671	51247505	1	serum deprivation response [Source:MarkerSymbol;Acc:MGI:99513]	ENSMUSG00000045954
262	1	51410407	51422460	51416433	51422460	51410407	-1	oligonucleotide/oligosaccharide-binding fold containing 2A [Source:MarkerSymbol;Acc:MGI:1923258]	ENSMUSG00000026107
263	1	51694310	51860497	51777404	51860497	51694310	-1	myosin IB [Source:MarkerSymbol;Acc:MGI:107752]	ENSMUSG00000018417
1547	1	51883519	51883640	51883579	51883640	51883519	-1	Small nucleolar RNA SNORA7 [Source: RFAM 8.0] [Source: RFAM 8.0]	ENSMUSG00000065285
264	1	51885195	51885806	51885501	51885806	51885195	-1		ENSMUSG00000061167
265	1	51952788	52051729	52002258	51952788	52051729	1	signal transducer and activator of transcription 4 [Source:MarkerSymbol;Acc:MGI:103062]	ENSMUSG00000062939
266	1	52064035	52066799	52065417	52064035	52066799	1	signal transducer and activator of transcription 1 [Source:MarkerSymbol;Acc:MGI:103063]	ENSMUSG00000073685
267	1	52067139	52100639	52083889	52067139	52100639	1	signal transducer and activator of transcription 1 [Source:MarkerSymbol;Acc:MGI:103063]	ENSMUSG00000026104
268	1	52129826	52177777	52153802	52177777	52129826	-1	glutaminase [Source:MarkerSymbol;Acc:MGI:95752]	ENSMUSG00000026103
1465	1	52388981	52389089	52389035	52389089	52388981	-1	U6 spliceosomal RNA [Source: RFAM 8.0] [Source: RFAM 8.0]	ENSMUSG00000065192
269	1	52402421	52444905	52423663	52444905	52402421	-1	Ngfi-A binding protein 1 [Source:MarkerSymbol;Acc:MGI:107564]	ENSMUSG00000002881
1386	1	52447778	52448773	52448276	52448773	52447778	-1	similar to Glyceraldehyde-3-phosphate dehydrogenase (GAPDH) (LOC546736), misc RNA [Source:RefSeq_dna;Acc:XR_033741]	ENSMUSG00000059793
270	1	52575282	52596464	52585873	52575282	52596464	1	RIKEN cDNA 5330401P04 gene [Source:MarkerSymbol;Acc:MGI:2444113]	ENSMUSG00000043015
271	1	52601476	52601586	52601531	52601586	52601476	-1	RIKEN cDNA 2210010L05 gene [Source:MarkerSymbol;Acc:MGI:1922925]	ENSMUSG00000055802
272	1	52601997	52671863	52636930	52671863	52601997	-1	RIKEN cDNA 2210010L05 gene [Source:MarkerSymbol;Acc:MGI:1922925]	ENSMUSG00000041439
273	1	52733967	52762120	52748043	52762120	52733967	-1	inositol polyphosphate-1-phosphatase [Source:MarkerSymbol;Acc:MGI:104848]	ENSMUSG00000026102
274	1	52789593	52865531	52827562	52789593	52865531	1	3-hydroxyisobutyryl-Coenzyme A hydrolase [Source:MarkerSymbol;Acc:MGI:1923792]	ENSMUSG00000041426
275	1	52869730	52907805	52888768	52907805	52869730	-1	RIKEN cDNA 1700019D03 gene [Source:MarkerSymbol;Acc:MGI:1914330]	ENSMUSG00000043629
276	1	53006208	53012624	53009416	53006208	53012624	1	myostatin [Source:MarkerSymbol;Acc:MGI:95691]	ENSMUSG00000026100
277	1	53103122	53132162	53117642	53132162	53103122	-1	RIKEN cDNA 1700019A02 gene [Source:MarkerSymbol;Acc:MGI:1916647]	ENSMUSG00000060715
278	1	53133732	53241541	53187636	53241541	53133732	-1	postmeiotic segregation increased 1 (S. cerevisiae) [Source:MarkerSymbol;Acc:MGI:1202302]	ENSMUSG00000026098
279	1	53241656	53254854	53248255	53241656	53254854	1	ORM1-like 1 (S. cerevisiae) [Source:MarkerSymbol;Acc:MGI:2181669]	ENSMUSG00000026097
280	1	53258206	53270885	53264546	53258206	53270885	1	O-sialoglycoprotein endopeptidase-like 1 [Source:MarkerSymbol;Acc:MGI:1919335]	ENSMUSG00000026096
281	1	53289189	53297244	53293217	53297244	53289189	-1	asparagine synthetase domain containing 1 [Source:MarkerSymbol;Acc:MGI:1917646]	ENSMUSG00000026095
282	1	53341554	53391904	53366729	53391904	53341554	-1		ENSMUSG00000041365
283	1	53491724	53510242	53500983	53510242	53491724	-1	dynein, axonemal, heavy chain 7 [Source:MarkerSymbol;Acc:MGI:2685838]	ENSMUSG00000067440
284	1	53511580	53646625	53579102	53646625	53511580	-1		ENSMUSG00000067534
285	1	53700057	53729699	53714878	53729699	53700057	-1	serine/threonine kinase 17b (apoptosis-inducing) [Source:MarkerSymbol;Acc:MGI:2138162]	ENSMUSG00000026094
286	1	53757767	54139579	53948673	54139579	53757767	-1	HECT, C2 and WW domain containing E3 ubiquitin protein ligase 2 [Source:MarkerSymbol;Acc:MGI:2685817]	ENSMUSG00000042807
1593	1	54193647	54193753	54193700	54193753	54193647	-1	U6 spliceosomal RNA [Source: RFAM 8.0] [Source: RFAM 8.0]	ENSMUSG00000064498
287	1	54195228	54313272	54254250	54195228	54313272	1	RIKEN cDNA 4930511H11 gene [Source:MarkerSymbol;Acc:MGI:1925266]	ENSMUSG00000025983
288	1	54342126	54383516	54362821	54383516	54342126	-1	general transcription factor IIIC, polypeptide 3 [Source:MarkerSymbol;Acc:MGI:2138383]	ENSMUSG00000041303
289	1	54420245	54420442	54420343	54420442	54420245	-1	RIKEN cDNA D230012E17 gene [Source:MarkerSymbol;Acc:MGI:2443342]	ENSMUSG00000073678
290	1	54434766	54502229	54468498	54502229	54434766	-1	RIKEN cDNA D230012E17 gene [Source:MarkerSymbol;Acc:MGI:2443342]	ENSMUSG00000070889
291	1	54706800	54773243	54740022	54773243	54706800	-1	ankyrin repeat domain 44 [Source:MarkerSymbol;Acc:MGI:3045243]	ENSMUSG00000052331
292	1	54929714	54972024	54950869	54972024	54929714	-1	splicing factor 3b, subunit 1 [Source:MarkerSymbol;Acc:MGI:1932339]	ENSMUSG00000025982
293	1	54997267	54997479	54997373	54997479	54997267	-1	2 days pregnant adult female ovary cDNA, RIKEN full-length enriched library, clone:E330011M16 product:hypothetical protein, full insert sequence. [Source:Uniprot/SPTREMBL;Acc:Q3UPP4]	ENSMUSG00000073677
294	1	54997346	55017246	55007296	54997346	55017246	1	coenzyme Q10 homolog B (S. cerevisiae) [Source:MarkerSymbol;Acc:MGI:1915126]	ENSMUSG00000025981
295	1	55022380	55032390	55027385	55032390	55022380	-1	heat shock protein 1 (chaperonin) [Source:MarkerSymbol;Acc:MGI:96242]	ENSMUSG00000025980
296	1	55033596	55035665	55034630	55033596	55035665	1	heat shock protein 1 (chaperonin 10) [Source:MarkerSymbol;Acc:MGI:104680]	ENSMUSG00000073676
297	1	55064619	55065321	55064970	55065321	55064619	-1		ENSMUSG00000063818
298	1	55075845	55099437	55087641	55075845	55099437	1	preimplantation protein 3 [Source:MarkerSymbol;Acc:MGI:104899]	ENSMUSG00000025979
299	1	55105285	55105596	55105441	55105596	55105285	-1		ENSMUSG00000061863
300	1	55114707	55171327	55143017	55171327	55114707	-1	raftlin family member 2 [Source:MarkerSymbol;Acc:MGI:1921263]	ENSMUSG00000025978
301	1	55171272	55173241	55172256	55171272	55173241	1	predicted gene, EG628004 [Source:MarkerSymbol;Acc:MGI:3648163]	ENSMUSG00000073675
302	1	55181782	55184593	55183188	55181782	55184593	1	methionine-tRNA synthetase 2 (mitochondrial) [Source:MarkerSymbol;Acc:MGI:2444136]	ENSMUSG00000046994
303	1	55244614	55307859	55276236	55307859	55244614	-1	bol, boule-like (Drosophila) [Source:MarkerSymbol;Acc:MGI:1922638]	ENSMUSG00000025977
304	1	55314558	55341382	55327970	55341382	55314558	-1		ENSMUSG00000067387
305	1	55350933	55696008	55523471	55350933	55696008	1	phospholipase C-like 1 [Source:MarkerSymbol;Acc:MGI:3036262]	ENSMUSG00000038349
1387	1	55388523	55389569	55389046	55389569	55388523	-1		ENSMUSG00000073674
1606	1	56524740	56524873	56524806	56524740	56524873	1	Small Cajal body specific RNA 14 [Source: RFAM 8.0] [Source: RFAM 8.0]	ENSMUSG00000077723
306	1	56580743	56581921	56581332	56581921	56580743	-1	heat shock transcription factor, Y linked 2 [Source:MarkerSymbol;Acc:MGI:1918316]	ENSMUSG00000045336
307	1	56740812	56915879	56828346	56915879	56740812	-1	special AT-rich sequence binding protein 2 [Source:MarkerSymbol;Acc:MGI:2679336]	ENSMUSG00000038331
308	1	57235970	57236889	57236430	57236889	57235970	-1		ENSMUSG00000042864
309	1	57322228	57328164	57325196	57322228	57328164	1	RIKEN cDNA 1700066M21 gene [Source:MarkerSymbol;Acc:MGI:1920717]	ENSMUSG00000038323
310	1	57332793	57351231	57342012	57351231	57332793	-1	RIKEN cDNA 1110034B05 gene [Source:MarkerSymbol;Acc:MGI:1915986]	ENSMUSG00000048495
311	1	57351304	57362490	57356897	57351304	57362490	1	RIKEN cDNA 9430016H08 gene [Source:MarkerSymbol;Acc:MGI:1915365]	ENSMUSG00000025971
1617	1	57366790	57366919	57366854	57366919	57366790	-1	Small nucleolar RNA SNORA17 [Source: RFAM 8.0] [Source: RFAM 8.0]	ENSMUSG00000077776
312	1	57463069	57463958	57463513	57463958	57463069	-1		ENSMUSG00000070884
313	1	57824051	57891510	57857781	57824051	57891510	1	RIKEN cDNA 2810022L02 gene [Source:MarkerSymbol;Acc:MGI:1914448]	ENSMUSG00000038305
314	1	57904600	57914598	57909599	57914598	57904600	-1	shugoshin-like 2 (S. pombe) [Source:MarkerSymbol;Acc:MGI:1098767]	ENSMUSG00000054770
315	1	57942644	57964301	57953472	57942644	57964301	1	shugoshin-like 2 (S. pombe) [Source:MarkerSymbol;Acc:MGI:1098767]	ENSMUSG00000026039
316	1	57974515	58050956	58012735	57974515	58050956	1	aldehyde oxidase 1 [Source:MarkerSymbol;Acc:MGI:88035]	ENSMUSG00000063558
317	1	58057682	58144991	58101336	58057682	58144991	1	aldehyde oxidase 3 [Source:MarkerSymbol;Acc:MGI:1918974]	ENSMUSG00000064294
318	1	58155016	58213087	58184052	58155016	58213087	1	aldehyde oxidase 4 [Source:MarkerSymbol;Acc:MGI:1919122]	ENSMUSG00000038242
319	1	58337673	58351098	58344385	58337673	58351098	1	basic leucine zipper and W2 domains 1 [Source:MarkerSymbol;Acc:MGI:1914132]	ENSMUSG00000051223
320	1	58356743	58366480	58361611	58366480	58356743	-1	CDC-like kinase 1 [Source:MarkerSymbol;Acc:MGI:107403]	ENSMUSG00000026034
321	1	58375750	58387145	58381448	58387145	58375750	-1	peptidylprolyl isomerase (cyclophilin)-like 3 [Source:MarkerSymbol;Acc:MGI:1917475]	ENSMUSG00000026035
322	1	58389697	58425609	58407653	58389697	58425609	1	Ngg1 interacting factor 3-like 1 (S. pombe) [Source:MarkerSymbol;Acc:MGI:1929485]	ENSMUSG00000026036
323	1	58407317	58449473	58428395	58449473	58407317	-1	origin recognition complex, subunit 2-like (S. cerevisiae) [Source:MarkerSymbol;Acc:MGI:1328306]	ENSMUSG00000026037
1454	1	58411061	58411167	58411114	58411167	58411061	-1	U6 spliceosomal RNA [Source: RFAM 8.0] [Source: RFAM 8.0]	ENSMUSG00000064701
324	1	58471779	58530816	58501297	58530816	58471779	-1	cDNA sequence BC049806 [Source:MarkerSymbol;Acc:MGI:2674086]	ENSMUSG00000038174
325	1	58530989	58540468	58535729	58530989	58540468	1	NADH dehydrogenase (ubiquinone) 1 beta subcomplex 3 [Source:MarkerSymbol;Acc:MGI:1913745]	ENSMUSG00000026032
1388	1	58569760	58570069	58569914	58570069	58569760	-1		ENSMUSG00000058342
326	1	58591154	58592863	58592008	58591154	58592863	1	chromobox homolog 3 (Drosophila HP1 gamma) [Source:MarkerSymbol;Acc:MGI:108515]	ENSMUSG00000059647
327	1	58603538	58636959	58620248	58636959	58603538	-1	amyotrophic lateral sclerosis 2 (juvenile) chromosome region, candidate 12 (human) [Source:MarkerSymbol;Acc:MGI:1918359]	ENSMUSG00000047528
328	1	58656054	58699719	58677886	58656054	58699719	1	CASP8 and FADD-like apoptosis regulator [Source:MarkerSymbol;Acc:MGI:1336166]	ENSMUSG00000026031
329	1	58739978	58791553	58765766	58739978	58791553	1	caspase 8 [Source:MarkerSymbol;Acc:MGI:1261423]	ENSMUSG00000026029
330	1	58844996	58917976	58881486	58917976	58844996	-1	trafficking protein, kinesin binding 2 [Source:MarkerSymbol;Acc:MGI:1918077]	ENSMUSG00000026028
331	1	58918146	58940261	58929204	58918146	58940261	1	amyotrophic lateral sclerosis 2 (juvenile) chromosome region, candidate 2 (human) [Source:MarkerSymbol;Acc:MGI:2144047]	ENSMUSG00000026027
332	1	58941887	58948085	58944986	58948085	58941887	-1	RIKEN cDNA 4930408G06 gene [Source:MarkerSymbol;Acc:MGI:1915429]	ENSMUSG00000047383
333	1	58995469	59022515	59008992	59022515	58995469	-1	amyotrophic lateral sclerosis 2 (juvenile) chromosome region, candidate 11 (human) [Source:MarkerSymbol;Acc:MGI:1920713]	ENSMUSG00000072295
1574	1	59015534	59015664	59015599	59015534	59015664	1	Small nucleolar RNA SNORA17 [Source: RFAM 8.0] [Source: RFAM 8.0]	ENSMUSG00000077616
334	1	59045136	59064905	59055020	59064905	59045136	-1	amyotrophic lateral sclerosis 2 (juvenile) chromosome region, candidate 4 [Source:MarkerSymbol;Acc:MGI:2138365]	ENSMUSG00000038079
335	1	59064380	59064814	59064597	59064380	59064814	1	predicted gene, ENSMUSG00000073665 [Source:MarkerSymbol;Acc:MGI:3641700]	ENSMUSG00000073665
336	1	59065489	59181765	59123627	59181765	59065489	-1	membrane protein, palmitoylated 4 (MAGUK p55 subfamily member 4) [Source:MarkerSymbol;Acc:MGI:2386681]	ENSMUSG00000026024
337	1	59234270	59288903	59261586	59234270	59288903	1	AL2S7_MOUSE Isoform 2 of Q3V3A1 - Mus musculus (Mouse) [Source:Uniprot/Varsplic;Acc:Q3V3A1-2]	ENSMUSG00000026023
338	1	59426725	59431505	59429115	59426725	59431505	1	frizzled homolog 7 (Drosophila) [Source:MarkerSymbol;Acc:MGI:108570]	ENSMUSG00000041075
339	1	59460978	59574628	59517803	59460978	59574628	1	gene model 973, (NCBI) [Source:MarkerSymbol;Acc:MGI:2685819]	ENSMUSG00000047361
340	1	59584746	59600087	59592416	59600087	59584746	-1	SMT3 suppressor of mif two 3 homolog 1 (yeast) [Source:MarkerSymbol;Acc:MGI:1197010]	ENSMUSG00000026021
341	1	59629555	59656670	59643113	59629555	59656670	1	nucleolar protein 5 [Source:MarkerSymbol;Acc:MGI:1933184]	ENSMUSG00000026020
1506	1	59636480	59636566	59636523	59636480	59636566	1	Small nucleolar RNA SNORD70 [Source: RFAM 8.0] [Source: RFAM 8.0]	ENSMUSG00000077345
1510	1	59637055	59637138	59637097	59637055	59637138	1	Small nucleolar RNA SNORD70 [Source: RFAM 8.0] [Source: RFAM 8.0]	ENSMUSG00000077358
342	1	59709199	59815028	59762113	59709199	59815028	1	bone morphogenic protein receptor, type II (serine/threonine kinase) [Source:MarkerSymbol;Acc:MGI:1095407]	ENSMUSG00000067336
343	1	59857552	59929892	59893722	59857552	59929892	1	amyotrophic lateral sclerosis 2 (juvenile) chromosome region, candidate 13 (human) [Source:MarkerSymbol;Acc:MGI:1920000]	ENSMUSG00000041040
344	1	59933614	59987633	59960624	59987633	59933614	-1	islet cell autoantigen 1-like [Source:MarkerSymbol;Acc:MGI:1917625]	ENSMUSG00000026018
345	1	60021414	60042721	60032068	60042721	60021414	-1	WD repeat domain 12 [Source:MarkerSymbol;Acc:MGI:1927241]	ENSMUSG00000026019
346	1	60052627	60095580	60074103	60052627	60095580	1	calcium response factor [Source:MarkerSymbol;Acc:MGI:2182269]	ENSMUSG00000026017
347	1	60126041	60204925	60165483	60126041	60204925	1	neurobeachin like 1 [Source:MarkerSymbol;Acc:MGI:2444343]	ENSMUSG00000041003
348	1	60223296	60276006	60249651	60223296	60276006	1	neurobeachin like 1 [Source:MarkerSymbol;Acc:MGI:2444343]	ENSMUSG00000073664
349	1	60287918	60331933	60309926	60287918	60331933	1	cytochrome P450, family 20, subfamily A, polypeptide 1 [Source:MarkerSymbol;Acc:MGI:1925201]	ENSMUSG00000049439
1605	1	60346898	60347021	60346960	60346898	60347021	1	5S ribosomal RNA [Source: RFAM 8.0] [Source: RFAM 8.0]	ENSMUSG00000065058
350	1	60354280	60425704	60389992	60354280	60425704	1	abl-interactor 2 [Source:MarkerSymbol;Acc:MGI:106913]	ENSMUSG00000026782
351	1	60437871	60477952	60457911	60477952	60437871	-1	Ras association (RalGDS/AF-6) and pleckstrin homology domains 1 [Source:RefSeq_peptide;Acc:NP_001038978]	ENSMUSG00000026014
352	1	60648463	60650239	60649351	60648463	60650239	1	eukaryotic translation initiation factor 4A1 [Source:MarkerSymbol;Acc:MGI:95303]	ENSMUSG00000064241
353	1	60691012	60717905	60704458	60691012	60717905	1	CD28 antigen [Source:MarkerSymbol;Acc:MGI:88327]	ENSMUSG00000026012
354	1	60853571	60860377	60856974	60853571	60860377	1	cytotoxic T-lymphocyte-associated protein 4 [Source:MarkerSymbol;Acc:MGI:88556]	ENSMUSG00000026011
355	1	60922460	60944866	60933663	60922460	60944866	1	inducible T-cell co-stimulator [Source:MarkerSymbol;Acc:MGI:1858745]	ENSMUSG00000026009
356	1	61020220	61020771	61020496	61020220	61020771	1		ENSMUSG00000073663
357	1	61573110	62572199	62072654	61573110	62572199	1	par-3 partitioning defective 3 homolog B (C. elegans) [Source:MarkerSymbol;Acc:MGI:1919301]	ENSMUSG00000052062
1389	1	62573121	62574659	62573890	62573121	62574659	1		ENSMUSG00000046526
358	1	62595115	62595995	62595555	62595115	62595995	1	ribosomal protein S2 [Source:MarkerSymbol;Acc:MGI:105110]	ENSMUSG00000056976
359	1	62637561	62752971	62695266	62637561	62752971	1	par-3 partitioning defective 3 homolog B (C. elegans) [Source:MarkerSymbol;Acc:MGI:1919301]	ENSMUSG00000025969
360	1	62992259	63048586	63020423	63048586	62992259	-1	RIKEN cDNA A430093A21 gene [Source:MarkerSymbol;Acc:MGI:3027003]	ENSMUSG00000040865
361	1	63077861	63110985	63094423	63110985	63077861	-1	NADH dehydrogenase (ubiquinone) Fe-S protein 1 [Source:MarkerSymbol;Acc:MGI:2443241]	ENSMUSG00000025968
362	1	63111405	63114254	63112829	63111405	63114254	1	eukaryotic translation elongation factor 1 beta 2 [Source:MarkerSymbol;Acc:MGI:1929520]	ENSMUSG00000025967
363	1	63112787	63113620	63113203	63113620	63112787	-1		ENSMUSG00000040847
1464	1	63112953	63113030	63112991	63112953	63113030	1	Small nucleolar RNA SNORD51 [Source: RFAM 8.0] [Source: RFAM 8.0]	ENSMUSG00000064612
1476	1	63113280	63113411	63113346	63113280	63113411	1	Small nucleolar RNA SNORA41 [Source: RFAM 8.0] [Source: RFAM 8.0]	ENSMUSG00000064602
364	1	63116967	63148485	63132726	63148485	63116967	-1	G protein-coupled receptor 1 [Source:MarkerSymbol;Acc:MGI:2385324]	ENSMUSG00000046856
365	1	63225014	63244221	63234618	63225014	63244221	1	zinc finger, DBF-type containing 2 [Source:MarkerSymbol;Acc:MGI:1921134]	ENSMUSG00000027520
1550	1	63234556	63234659	63234608	63234659	63234556	-1	U6 spliceosomal RNA [Source: RFAM 8.0] [Source: RFAM 8.0]	ENSMUSG00000065946
1390	1	63298993	63299437	63299215	63299437	63298993	-1		ENSMUSG00000072446
366	1	63380180	63530791	63455486	63380180	63530791	1	a disintegrin and metallopeptidase domain 23 [Source:MarkerSymbol;Acc:MGI:1345162]	ENSMUSG00000025964
367	1	63598522	63609176	63603849	63609176	63598522	-1	gene model 215, (NCBI) [Source:MarkerSymbol;Acc:MGI:2685061]	ENSMUSG00000069085
368	1	63633103	63664594	63648849	63664594	63633103	-1	malate dehydrogenase 1B, NAD (soluble) [Source:MarkerSymbol;Acc:MGI:1923918]	ENSMUSG00000025963
369	1	63664927	63687661	63676294	63664927	63687661	1	FAST kinase domains 2 [Source:MarkerSymbol;Acc:MGI:1922869]	ENSMUSG00000025962
370	1	63689183	63703543	63696363	63703543	63689183	-1	RIKEN cDNA 4933402D24 gene [Source:MarkerSymbol;Acc:MGI:1921676]	ENSMUSG00000025961
371	1	63779100	63779782	63779441	63779782	63779100	-1		ENSMUSG00000070872
372	1	63899003	63903275	63901139	63899003	63903275	1	predicted gene, OTTMUSG00000013918 [Source:MarkerSymbol;Acc:MGI:3649721]	ENSMUSG00000044689
373	1	63969951	64055694	64012823	64055694	63969951	-1	Kruppel-like factor 7 (ubiquitous) [Source:MarkerSymbol;Acc:MGI:1935151]	ENSMUSG00000025959
374	1	64084447	64084941	64084694	64084447	64084941	1		ENSMUSG00000057599
375	1	64467080	64538826	64502953	64467080	64538826	1	cAMP responsive element binding protein 1 [Source:MarkerSymbol;Acc:MGI:88494]	ENSMUSG00000025958
376	1	64540756	64551444	64546100	64551444	64540756	-1	RIKEN cDNA 2310038H17 gene [Source:MarkerSymbol;Acc:MGI:1914349]	ENSMUSG00000025956
377	1	64635157	64657915	64646536	64635157	64657915	1		ENSMUSG00000070871
378	1	64666927	64667352	64667139	64667352	64666927	-1	frizzled homolog 5 (Drosophila) [Source:MarkerSymbol;Acc:MGI:108571]	ENSMUSG00000073662
379	1	64668689	64672026	64670357	64672026	64668689	-1	frizzled homolog 5 (Drosophila) [Source:MarkerSymbol;Acc:MGI:108571]	ENSMUSG00000045005
380	1	64684756	64684869	64684812	64684869	64684756	-1		ENSMUSG00000073661
381	1	64694986	64695108	64695047	64694986	64695108	1	predicted gene, ENSMUSG00000073237 [Source:MarkerSymbol;Acc:MGI:3642752]	ENSMUSG00000073660
382	1	64720260	64891100	64805680	64891100	64720260	-1	RIKEN cDNA 9430067K14 gene [Source:MarkerSymbol;Acc:MGI:2443627]	ENSMUSG00000051344
383	1	64928227	64928880	64928553	64928880	64928227	-1	ribosomal protein L10A [Source:MarkerSymbol;Acc:MGI:1343877]	ENSMUSG00000061631
1539	1	64935583	64935738	64935661	64935738	64935583	-1	U1 spliceosomal RNA [Source: RFAM 8.0] [Source: RFAM 8.0]	ENSMUSG00000077471
384	1	64946965	64967024	64956995	64967024	64946965	-1	RIKEN cDNA 4921521F21 gene [Source:MarkerSymbol;Acc:MGI:1918111]	ENSMUSG00000025955
385	1	64982835	64985389	64984112	64985389	64982835	-1	crystallin, gamma E [Source:MarkerSymbol;Acc:MGI:88525]	ENSMUSG00000070870
386	1	64996115	64997697	64996906	64997697	64996115	-1	crystallin, gamma D [Source:MarkerSymbol;Acc:MGI:88524]	ENSMUSG00000067299
387	1	65005810	65007787	65006798	65007787	65005810	-1	crystallin, gamma C [Source:MarkerSymbol;Acc:MGI:88523]	ENSMUSG00000025952
388	1	65009768	65009887	65009828	65009887	65009768	-1		ENSMUSG00000073659
389	1	65014503	65016543	65015523	65016543	65014503	-1	crystallin, gamma B [Source:MarkerSymbol;Acc:MGI:88522]	ENSMUSG00000073658
390	1	65034665	65037639	65036152	65037639	65034665	-1	crystallin, gamma A [Source:MarkerSymbol;Acc:MGI:88521]	ENSMUSG00000044429
391	1	65041589	65057469	65049529	65057469	65041589	-1	RIKEN cDNA D630023F18 gene [Source:MarkerSymbol;Acc:MGI:2138198]	ENSMUSG00000044816
392	1	65092904	65113390	65103147	65113390	65092904	-1	isocitrate dehydrogenase 1 (NADP+), soluble [Source:MarkerSymbol;Acc:MGI:96413]	ENSMUSG00000025950
393	1	65120978	65208288	65164633	65120978	65208288	1	phosphatidylinositol-3-phosphate/phosphatidylinositol 5-kinase, type III [Source:MarkerSymbol;Acc:MGI:1335106]	ENSMUSG00000025949
394	1	65209178	65211052	65210115	65209178	65211052	1	phosphatidylinositol-3-phosphate/phosphatidylinositol 5-kinase, type III [Source:MarkerSymbol;Acc:MGI:1335106]	ENSMUSG00000073657
395	1	65245533	65323520	65284527	65245533	65323520	1	parathyroid hormone receptor 2 [Source:MarkerSymbol;Acc:MGI:2180917]	ENSMUSG00000025946
396	1	65860798	65862580	65861689	65860798	65862580	1	crystallin, gamma F [Source:MarkerSymbol;Acc:MGI:88526]	ENSMUSG00000025945
397	1	66184870	66375789	66280330	66184870	66375789	1	microtubule-associated protein 2 [Source:MarkerSymbol;Acc:MGI:97175]	ENSMUSG00000015222
1466	1	66239121	66239233	66239177	66239121	66239233	1	Small nucleolar RNA SNORA26 [Source: RFAM 8.0] [Source: RFAM 8.0]	ENSMUSG00000077216
398	1	66255738	66255914	66255826	66255914	66255738	-1	predicted gene, ENSMUSG00000073656 [Source:MarkerSymbol;Acc:MGI:3642906]	ENSMUSG00000073656
1565	1	66369290	66369440	66369365	66369290	66369440	1	U1 spliceosomal RNA [Source: RFAM 8.0] [Source: RFAM 8.0]	ENSMUSG00000065694
399	1	66401621	66443893	66422757	66401621	66443893	1	RIKEN cDNA C030018G13 gene [Source:MarkerSymbol;Acc:MGI:2445028]	ENSMUSG00000047839
400	1	66560404	66629857	66595130	66560404	66629857	1	cDNA sequence BC042720 [Source:MarkerSymbol;Acc:MGI:2652882]	ENSMUSG00000055567
401	1	66634092	66653013	66643552	66634092	66653013	1	ribulose-5-phosphate-3-epimerase [Source:MarkerSymbol;Acc:MGI:1913896]	ENSMUSG00000026005
402	1	66652456	66750754	66701605	66750754	66652456	-1	RIKEN cDNA 1110028C15 gene [Source:MarkerSymbol;Acc:MGI:1915941]	ENSMUSG00000026004
403	1	66764061	66796457	66780259	66796457	66764061	-1	acyl-Coenzyme A dehydrogenase, long-chain [Source:MarkerSymbol;Acc:MGI:87866]	ENSMUSG00000026003
1529	1	66789861	66789911	66789886	66789861	66789911	1	U7 small nuclear RNA [Source: RFAM 8.0] [Source: RFAM 8.0]	ENSMUSG00000065793
1503	1	66800005	66800134	66800069	66800005	66800134	1	Small nucleolar RNA SNORA17 [Source: RFAM 8.0] [Source: RFAM 8.0]	ENSMUSG00000077328
404	1	66857506	66878240	66867873	66878240	66857506	-1	myosin, light polypeptide 1 [Source:MarkerSymbol;Acc:MGI:97269]	ENSMUSG00000061816
405	1	66881771	66882148	66881959	66882148	66881771	-1		ENSMUSG00000059999
406	1	66933725	66972073	66952899	66972073	66933725	-1	LanC (bacterial lantibiotic synthetase component C)-like 1 [Source:MarkerSymbol;Acc:MGI:1336997]	ENSMUSG00000026000
407	1	67056373	67056498	67056435	67056373	67056498	1	carbamoyl-phosphate synthetase 1 [Source:MarkerSymbol;Acc:MGI:891996]	ENSMUSG00000073655
408	1	67085484	67164467	67124976	67085484	67164467	1	carbamoyl-phosphate synthetase 1 [Source:MarkerSymbol;Acc:MGI:891996]	ENSMUSG00000025991
1612	1	67190432	67190560	67190496	67190432	67190560	1	Small nucleolar RNA SNORA17 [Source: RFAM 8.0] [Source: RFAM 8.0]	ENSMUSG00000077745
409	1	67518402	67520209	67519306	67518402	67520209	1		ENSMUSG00000073654
410	1	67973387	69040964	68507175	69040964	67973387	-1	v-erb-a erythroblastic leukemia viral oncogene homolog 4 (avian) [Source:MarkerSymbol;Acc:MGI:104771]	ENSMUSG00000062209
1391	1	69064179	69064507	69064343	69064507	69064179	-1		ENSMUSG00000060728
411	1	69470598	69620348	69545473	69620348	69470598	-1	IKAROS family zinc finger 2 [Source:MarkerSymbol;Acc:MGI:1342541]	ENSMUSG00000025997
412	1	69760212	70658150	70209181	69760212	70658150	1	sperm associated antigen 16 [Source:MarkerSymbol;Acc:MGI:1913972]	ENSMUSG00000053153
1597	1	70530023	70530129	70530076	70530023	70530129	1	U6 spliceosomal RNA [Source: RFAM 8.0] [Source: RFAM 8.0]	ENSMUSG00000075952
413	1	70658923	70818605	70738764	70658923	70818605	1	RIKEN cDNA A830006F12 gene [Source:MarkerSymbol;Acc:MGI:2444069]	ENSMUSG00000045648
414	1	70960928	70961245	70961086	70961245	70960928	-1	predicted gene, ENSMUSG00000073653 [Source:MarkerSymbol;Acc:MGI:3642903]	ENSMUSG00000073653
415	1	70961516	70961866	70961691	70961866	70961516	-1	predicted gene, ENSMUSG00000060893 [Source:MarkerSymbol;Acc:MGI:3642437]	ENSMUSG00000060893
416	1	70963573	71036126	70999849	71036126	70963573	-1	BRCA1 associated RING domain 1 [Source:MarkerSymbol;Acc:MGI:1328361]	ENSMUSG00000026196
1392	1	71088491	71089163	71088827	71089163	71088491	-1		ENSMUSG00000072445
417	1	71176508	71348118	71262313	71348118	71176508	-1	ATP-binding cassette, sub-family A (ABC1), member 12 [Source:MarkerSymbol;Acc:MGI:2676312]	ENSMUSG00000050296
1393	1	71426942	71427405	71427174	71427405	71426942	-1	similar to acid phosphatase 1 isoform b (LOC635312), mRNA [Source:RefSeq_dna;Acc:XR_004449]	ENSMUSG00000049798
418	1	71490367	71512612	71501489	71490367	71512612	1	5-aminoimidazole-4-carboxamide ribonucleotide formyltransferase/IMP cyclohydrolase [Source:MarkerSymbol;Acc:MGI:1351352]	ENSMUSG00000026192
419	1	71518731	71586380	71552555	71586380	71518731	-1	fibronectin 1 [Source:MarkerSymbol;Acc:MGI:95566]	ENSMUSG00000026193
420	1	71586200	71590453	71588326	71586200	71590453	1	predicted gene, ENSMUSG00000073652 [Source:MarkerSymbol;Acc:MGI:3642904]	ENSMUSG00000073652
421	1	71642910	71643263	71643086	71643263	71642910	-1		ENSMUSG00000067744
1394	1	71647251	71648134	71647693	71648134	71647251	-1		ENSMUSG00000060859
1395	1	71788045	71788516	71788281	71788045	71788516	1		ENSMUSG00000062416
422	1	71937496	71937831	71937664	71937496	71937831	1		ENSMUSG00000060125
423	1	72092441	72145319	72118880	72145319	72092441	-1	melanoregulin [Source:MarkerSymbol;Acc:MGI:2151839]	ENSMUSG00000039395
1543	1	72159448	72159638	72159543	72159448	72159638	1	U2 spliceosomal RNA [Source: RFAM 8.0] [Source: RFAM 8.0]	ENSMUSG00000075752
1508	1	72170154	72170344	72170249	72170154	72170344	1	U2 spliceosomal RNA [Source: RFAM 8.0] [Source: RFAM 8.0]	ENSMUSG00000075777
1572	1	72177421	72177611	72177516	72177421	72177611	1	U2 spliceosomal RNA [Source: RFAM 8.0] [Source: RFAM 8.0]	ENSMUSG00000075797
1448	1	72188216	72188406	72188311	72188216	72188406	1	U2 spliceosomal RNA [Source: RFAM 8.0] [Source: RFAM 8.0]	ENSMUSG00000075806
424	1	72192385	72217512	72204949	72217512	72192385	-1	peroxisomal trans-2-enoyl-CoA reductase [Source:MarkerSymbol;Acc:MGI:2148199]	ENSMUSG00000026189
425	1	72217603	72236311	72226957	72217603	72236311	1	transmembrane protein 169 [Source:MarkerSymbol;Acc:MGI:2442781]	ENSMUSG00000026188
426	1	72243643	72327187	72285415	72243643	72327187	1	X-ray repair complementing defective repair in Chinese hamster cells 5 [Source:MarkerSymbol;Acc:MGI:104517]	ENSMUSG00000026187
427	1	72360321	72470138	72415229	72470138	72360321	-1	membrane-associated ring finger (C3HC4) 4 [Source:MarkerSymbol;Acc:MGI:2683550]	ENSMUSG00000039372
428	1	72516478	72566341	72541410	72516478	72566341	1	Swi/SNF related matrix associated, actin dependent regulator of chromatin, subfamily a-like 1 [Source:MarkerSymbol;Acc:MGI:1859183]	ENSMUSG00000039354
429	1	72576187	72633771	72604979	72633771	72576187	-1	ankyrin and armadillo repeat containing [Source:MarkerSymbol;Acc:MGI:2442559]	ENSMUSG00000039342
430	1	72644879	72646892	72645885	72644879	72646892	1	ribosomal protein L37a [Source:MarkerSymbol;Acc:MGI:98068]	ENSMUSG00000046330
431	1	72757699	72785670	72771685	72757699	72785670	1	insulin-like growth factor binding protein 2 [Source:MarkerSymbol;Acc:MGI:96437]	ENSMUSG00000039323
432	1	72791272	72808072	72799672	72808072	72791272	-1	insulin-like growth factor binding protein 5 [Source:MarkerSymbol;Acc:MGI:96440]	ENSMUSG00000026185
433	1	72948284	72949106	72948695	72949106	72948284	-1	transition protein 1 [Source:MarkerSymbol;Acc:MGI:98784]	ENSMUSG00000026182
434	1	73846153	73858909	73852531	73858909	73846153	-1	tensin 1 [Source:MarkerSymbol;Acc:MGI:104552]	ENSMUSG00000055322
435	1	73922929	73931675	73927302	73931675	73922929	-1	tensin 1 [Source:MarkerSymbol;Acc:MGI:104552]	ENSMUSG00000073651
436	1	74058748	74081430	74070089	74058748	74081430	1	RUN and FYVE domain containing 4 [Source:MarkerSymbol;Acc:MGI:3588214]	ENSMUSG00000061815
437	1	74087201	74094453	74090827	74087201	74094453	1	interleukin 8 receptor, beta [Source:MarkerSymbol;Acc:MGI:105303]	ENSMUSG00000026180
438	1	74124995	74127838	74126417	74127838	74124995	-1	interleukin 8 receptor, alpha [Source:MarkerSymbol;Acc:MGI:2448715]	ENSMUSG00000048480
1520	1	74146020	74146126	74146073	74146020	74146126	1	U6 spliceosomal RNA [Source: RFAM 8.0] [Source: RFAM 8.0]	ENSMUSG00000075767
439	1	74169784	74197664	74183724	74169784	74197664	1	actin related protein 2/3 complex, subunit 2 [Source:MarkerSymbol;Acc:MGI:1923959]	ENSMUSG00000006304
440	1	74211807	74212796	74212301	74211807	74212796	1	G protein-coupled bile acid receptor 1 [Source:MarkerSymbol;Acc:MGI:2653863]	ENSMUSG00000064272
441	1	74213054	74217873	74215464	74217873	74213054	-1	angio-associated migratory protein [Source:MarkerSymbol;Acc:MGI:107809]	ENSMUSG00000006299
442	1	74218241	74286899	74252570	74218241	74286899	1	paroxysmal nonkinesiogenic dyskinesia [Source:MarkerSymbol;Acc:MGI:1930773]	ENSMUSG00000026179
443	1	74221461	74237367	74229414	74237367	74221461	-1	transmembrane BAX inhibitor motif containing 1 [Source:MarkerSymbol;Acc:MGI:1916910]	ENSMUSG00000006301
444	1	74295315	74302528	74298921	74295315	74302528	1	gene model 216, (NCBI) [Source:MarkerSymbol;Acc:MGI:2685062]	ENSMUSG00000073650
445	1	74308410	74319259	74313834	74308410	74319259	1	solute carrier family 11 (proton-coupled divalent metal ion transporters), member 1 [Source:MarkerSymbol;Acc:MGI:1345275]	ENSMUSG00000026177
446	1	74324806	74330492	74327649	74324806	74330492	1	CTD (carboxy-terminal domain, RNA polymerase II, polypeptide A) small phosphatase 1 [Source:MarkerSymbol;Acc:MGI:2654470]	ENSMUSG00000026176
1584	1	74327517	74327601	74327559	74327517	74327601	1	mmu-mir-26b [Source:miRBase;Acc:MI0000575]	ENSMUSG00000065468
447	1	74342615	74368752	74355683	74342615	74368752	1	villin 1 [Source:MarkerSymbol;Acc:MGI:98930]	ENSMUSG00000026175
448	1	74372319	74477493	74424906	74477493	74372319	-1	ubiquitin specific peptidase 37 [Source:MarkerSymbol;Acc:MGI:2442483]	ENSMUSG00000033364
449	1	74438458	74464048	74451253	74438458	74464048	1	rcd1 (required for cell differentiation) homolog 1 (S. pombe) [Source:MarkerSymbol;Acc:MGI:1928902]	ENSMUSG00000026174
450	1	74476095	74501001	74488548	74476095	74501001	1	phospholipase C, delta 4 [Source:MarkerSymbol;Acc:MGI:107469]	ENSMUSG00000026173
451	1	74499649	74521221	74510435	74521221	74499649	-1	zinc finger protein 142 [Source:MarkerSymbol;Acc:MGI:1924514]	ENSMUSG00000026135
452	1	74521568	74525650	74523609	74521568	74525650	1	BCS1-like (yeast) [Source:MarkerSymbol;Acc:MGI:1914071]	ENSMUSG00000026172
453	1	74526960	74534604	74530782	74534604	74526960	-1	ring finger protein 25 [Source:MarkerSymbol;Acc:MGI:1890215]	ENSMUSG00000026171
454	1	74534662	74570103	74552382	74534662	74570103	1	serine/threonine kinase 36 (fused homolog, Drosophila) [Source:MarkerSymbol;Acc:MGI:1920831]	ENSMUSG00000033276
455	1	74594961	74631182	74613071	74594961	74631182	1	tubulin tyrosine ligase-like family, member 4 [Source:MarkerSymbol;Acc:MGI:1914784]	ENSMUSG00000033257
456	1	74646781	74671097	74658939	74646781	74671097	1	cytochrome P450, family 27, subfamily a, polypeptide 1 [Source:MarkerSymbol;Acc:MGI:88594]	ENSMUSG00000026170
457	1	74672706	74682162	74677434	74682162	74672706	-1	protein kinase, AMP-activated, gamma 3 non-catatlytic subunit [Source:MarkerSymbol;Acc:MGI:1891343]	ENSMUSG00000006542
458	1	74705165	74718155	74711660	74705165	74718155	1	wingless-related MMTV integration site 6 [Source:MarkerSymbol;Acc:MGI:98960]	ENSMUSG00000033227
459	1	74724723	74737386	74731055	74724723	74737386	1	wingless related MMTV integration site 10a [Source:MarkerSymbol;Acc:MGI:108071]	ENSMUSG00000026167
1396	1	74788311	74789414	74788863	74788311	74789414	1		ENSMUSG00000033204
460	1	74814716	74818626	74816671	74818626	74814716	-1	FEV (ETS oncogene family) [Source:MarkerSymbol;Acc:MGI:2449712]	ENSMUSG00000055197
461	1	74823151	74826342	74824747	74826342	74823151	-1	crystallin, beta A2 [Source:MarkerSymbol;Acc:MGI:104336]	ENSMUSG00000006546
1553	1	74833865	74833928	74833897	74833928	74833865	-1	mmu-mir-375 [Source:miRBase;Acc:MI0000792]	ENSMUSG00000065616
462	1	74835287	74868806	74852047	74868806	74835287	-1	coiled-coil domain containing 108 [Source:MarkerSymbol;Acc:MGI:2444274]	ENSMUSG00000047021
463	1	74878522	74884858	74881690	74884858	74878522	-1	Indian hedgehog [Source:MarkerSymbol;Acc:MGI:96533]	ENSMUSG00000006538
464	1	74900901	74979861	74940381	74979861	74900901	-1	nonhomologous end-joining factor 1 [Source:MarkerSymbol;Acc:MGI:1922820]	ENSMUSG00000026162
465	1	75008751	75017098	75012925	75017098	75008751	-1	solute carrier family 23 (nucleobase transporters), member 3 [Source:MarkerSymbol;Acc:MGI:104516]	ENSMUSG00000026205
466	1	75018424	75025579	75022002	75025579	75018424	-1	RIKEN cDNA 1810031K17 gene [Source:MarkerSymbol;Acc:MGI:1916421]	ENSMUSG00000033159
467	1	75025997	75031116	75028557	75025997	75031116	1	cDNA sequence BC038286 [Source:MarkerSymbol;Acc:MGI:2388278]	ENSMUSG00000049339
468	1	75051857	75054769	75053313	75051857	75054769	1	zinc finger, AN1 type domain 2B [Source:MarkerSymbol;Acc:MGI:1916068]	ENSMUSG00000026197
469	1	75054785	75063430	75059107	75063430	75054785	-1	ATP-binding cassette, sub-family B (MDR/TAP), member 6 [Source:MarkerSymbol;Acc:MGI:1921354]	ENSMUSG00000026198
470	1	75064012	75075343	75069678	75075343	75064012	-1	autophagy-related 9A (yeast) [Source:MarkerSymbol;Acc:MGI:2138446]	ENSMUSG00000033124
471	1	75075339	75082528	75078933	75075339	75082528	1	ankyrin repeat and zinc finger domain containing 1 [Source:MarkerSymbol;Acc:MGI:1098746]	ENSMUSG00000026199
472	1	75081391	75093926	75087659	75093926	75081391	-1	galactosidase, beta 1-like [Source:MarkerSymbol;Acc:MGI:1921827]	ENSMUSG00000026200
473	1	75094003	75098754	75096379	75094003	75098754	1	serine/threonine kinase 16 [Source:MarkerSymbol;Acc:MGI:1313271]	ENSMUSG00000026201
474	1	75098770	75100582	75099676	75100582	75098770	-1	tubulin, alpha 4A [Source:MarkerSymbol;Acc:MGI:1095410]	ENSMUSG00000026202
475	1	75119613	75128838	75124225	75119613	75128838	1	DnaJ (Hsp40) homolog, subfamily B, member 10 [Source:MarkerSymbol;Acc:MGI:1928739]	ENSMUSG00000026203
476	1	75130198	75147299	75138748	75147299	75130198	-1	protein tyrosine phosphatase, receptor type, N [Source:MarkerSymbol;Acc:MGI:102765]	ENSMUSG00000026204
477	1	75155350	75161528	75158439	75161528	75155350	-1	regulated endocrine-specific protein 18 [Source:MarkerSymbol;Acc:MGI:1098222]	ENSMUSG00000033061
478	1	75191807	75199951	75195879	75199951	75191807	-1	aspartyl aminopeptidase [Source:MarkerSymbol;Acc:MGI:1278328]	ENSMUSG00000026209
479	1	75243492	75250864	75247178	75243492	75250864	1	desmin [Source:MarkerSymbol;Acc:MGI:94885]	ENSMUSG00000026208
480	1	75258445	75315581	75287013	75258445	75315581	1	SPEG complex locus [Source:MarkerSymbol;Acc:MGI:109282]	ENSMUSG00000026207
481	1	75319132	75326322	75322727	75319132	75326322	1	GDP-mannose pyrophosphorylase A [Source:MarkerSymbol;Acc:MGI:1916330]	ENSMUSG00000033021
482	1	75333847	75357488	75345667	75333847	75357488	1	amiloride-sensitive cation channel 4, pituitary [Source:MarkerSymbol;Acc:MGI:2652846]	ENSMUSG00000033007
483	1	75357717	75362549	75360133	75362549	75357717	-1	Chondroitin sulfate synthase 2 (EC 2.4.1.175) (Glucuronosyl-N- acetylgalactosaminyl-proteoglycan 4-beta-N- acetylgalactosaminyltransferase II) (N-acetylgalactosaminyl- proteoglycan 3-beta-glucuronosyltransferase II) (EC 2.4.1.226) (Chondroitin glucuronylt [Source:Uniprot/SWISSPROT;Acc:Q6IQX7]	ENSMUSG00000032997
484	1	75362728	75368853	75365790	75362728	75368853	1	RIKEN cDNA A230078I05 gene [Source:MarkerSymbol;Acc:MGI:2443133]	ENSMUSG00000051703
485	1	75369780	75388789	75379284	75388789	75369780	-1	expressed sequence AW822216 [Source:MarkerSymbol;Acc:MGI:2138628]	ENSMUSG00000026211
486	1	75390225	75393502	75391863	75390225	75393502	1	inhibin alpha [Source:MarkerSymbol;Acc:MGI:96569]	ENSMUSG00000032968
487	1	75404694	75420483	75412588	75404694	75420483	1	serine/threonine kinase 11 interacting protein [Source:MarkerSymbol;Acc:MGI:1918978]	ENSMUSG00000026213
488	1	75429419	75442231	75435825	75429419	75442231	1	solute carrier family 4 (anion exchanger), member 3 [Source:MarkerSymbol;Acc:MGI:109350]	ENSMUSG00000006576
489	1	75444149	75444508	75444329	75444149	75444508	1	solute carrier family 4 (anion exchanger), member 3 [Source:MarkerSymbol;Acc:MGI:109350]	ENSMUSG00000073649
1397	1	75519556	75520327	75519942	75519556	75520327	1	similar to Rpl7a protein (LOC383531), misc RNA [Source:RefSeq_dna;Acc:XR_030615]	ENSMUSG00000061211
1398	1	76933478	76934017	76933748	76933478	76934017	1	similar to 60S ribosomal protein L17 (L23) (Amino acid starvation-induced protein) (ASI) (LOC435628), mRNA [Source:RefSeq_dna;Acc:XR_002430]	ENSMUSG00000060539
1399	1	76949115	76949740	76949427	76949115	76949740	1		ENSMUSG00000047548
490	1	77250333	77398236	77324285	77398236	77250333	-1	Eph receptor A4 [Source:MarkerSymbol;Acc:MGI:98277]	ENSMUSG00000026235
1590	1	77781431	77781594	77781513	77781594	77781431	-1	U1 spliceosomal RNA [Source: RFAM 8.0] [Source: RFAM 8.0]	ENSMUSG00000065215
491	1	77985839	78080283	78033061	78080283	77985839	-1	paired box gene 3 [Source:MarkerSymbol;Acc:MGI:97487]	ENSMUSG00000004872
492	1	78193492	78303436	78248464	78193492	78303436	1	sphingosine-1-phosphate phosphotase 2 [Source:MarkerSymbol;Acc:MGI:3589109]	ENSMUSG00000032908
493	1	78301105	78372006	78336555	78372006	78301105	-1	phenylalanyl-tRNA synthetase, beta subunit [Source:MarkerSymbol;Acc:MGI:1346035]	ENSMUSG00000026245
494	1	78395038	78421317	78408178	78395038	78421317	1	monoacylglycerol O-acyltransferase 1 [Source:MarkerSymbol;Acc:MGI:1915643]	ENSMUSG00000012187
495	1	78536898	78586015	78561456	78536898	78586015	1	acyl-CoA synthetase long-chain family member 3 [Source:MarkerSymbol;Acc:MGI:1921455]	ENSMUSG00000032883
496	1	78695945	78699050	78697497	78695945	78699050	1	potassium voltage-gated channel, Isk-related subfamily, gene 4 [Source:MarkerSymbol;Acc:MGI:1891125]	ENSMUSG00000047330
1400	1	78846775	78847103	78846939	78847103	78846775	-1		ENSMUSG00000073644
497	1	79313693	79319114	79316403	79319114	79313693	-1	secretogranin II [Source:MarkerSymbol;Acc:MGI:103033]	ENSMUSG00000050711
1620	1	79392763	79392888	79392825	79392888	79392763	-1	Small nucleolar RNA SNORA17 [Source: RFAM 8.0] [Source: RFAM 8.0]	ENSMUSG00000077782
498	1	79488191	79504309	79496250	79504309	79488191	-1	adaptor-related protein complex AP-1, sigma 3 [Source:MarkerSymbol;Acc:MGI:1891304]	ENSMUSG00000054702
499	1	79584403	79601262	79592833	79601262	79584403	-1	WD repeat and FYVE domain containing 1 [Source:MarkerSymbol;Acc:MGI:1916618]	ENSMUSG00000073643
500	1	79605511	79640793	79623152	79640793	79605511	-1	WD repeat and FYVE domain containing 1 [Source:MarkerSymbol;Acc:MGI:1916618]	ENSMUSG00000004377
501	1	79643074	79643409	79643242	79643074	79643409	1	predicted gene, ENSMUSG00000073642 [Source:MarkerSymbol;Acc:MGI:3642807]	ENSMUSG00000073642
502	1	79655157	79660468	79657813	79655157	79660468	1	mitochondrial ribosomal protein L44 [Source:MarkerSymbol;Acc:MGI:1916413]	ENSMUSG00000026248
503	1	79673221	79737660	79705441	79737660	79673221	-1	serine (or cysteine) peptidase inhibitor, clade E, member 2 [Source:MarkerSymbol;Acc:MGI:101780]	ENSMUSG00000026249
504	1	79801560	79802531	79802046	79802531	79801560	-1	similar to solute carrier family 25, member 5 (LOC673916), mRNA [Source:RefSeq_dna;Acc:XR_004388]	ENSMUSG00000067161
1541	1	80014490	80014596	80014543	80014490	80014596	1	U6 spliceosomal RNA [Source: RFAM 8.0] [Source: RFAM 8.0]	ENSMUSG00000064589
505	1	80070143	80070409	80070276	80070143	80070409	1	predicted gene, ENSMUSG00000073641 [Source:MarkerSymbol;Acc:MGI:3642808]	ENSMUSG00000073641
506	1	80077730	80092968	80085349	80092968	80077730	-1	RIKEN cDNA A830043J08 gene [Source:MarkerSymbol;Acc:MGI:3026880]	ENSMUSG00000043230
507	1	80145842	80219466	80182654	80219466	80145842	-1	cullin 3 [Source:MarkerSymbol;Acc:MGI:1347360]	ENSMUSG00000004364
508	1	80262248	80264212	80263230	80264212	80262248	-1		ENSMUSG00000048124
509	1	80380212	80637551	80508882	80637551	80380212	-1	dedicator of cytokinesis 10 [Source:MarkerSymbol;Acc:MGI:2146320]	ENSMUSG00000038608
510	1	80956341	81220788	81088565	80956341	81220788	1	RIKEN cDNA 9430031J16 gene [Source:MarkerSymbol;Acc:MGI:2443135]	ENSMUSG00000054976
511	1	81621009	81622016	81621513	81622016	81621009	-1	phospholipid scramblase 1 [Source:MarkerSymbol;Acc:MGI:893575]	ENSMUSG00000047306
1401	1	81984587	81986007	81985297	81984587	81986007	1		ENSMUSG00000055952
512	1	82112131	82116114	82114123	82112131	82116114	1	predicted gene, ENSMUSG00000022591 [Source:MarkerSymbol;Acc:MGI:3710571]	ENSMUSG00000022591
513	1	82115634	82170440	82143037	82170440	82115634	-1	insulin receptor substrate 1 [Source:MarkerSymbol;Acc:MGI:99454]	ENSMUSG00000055980
514	1	82195621	82323558	82259589	82195621	82323558	1	rhomboid domain containing 1 [Source:MarkerSymbol;Acc:MGI:1924117]	ENSMUSG00000026142
515	1	82331582	82465816	82398699	82465816	82331582	-1	procollagen, type IV, alpha 4 [Source:MarkerSymbol;Acc:MGI:104687]	ENSMUSG00000067158
1505	1	82514037	82514132	82514085	82514037	82514132	1	5S ribosomal RNA [Source: RFAM 8.0] [Source: RFAM 8.0]	ENSMUSG00000065055
516	1	82603942	82631418	82617680	82603942	82631418	1	RIKEN cDNA 5230400G24 gene [Source:MarkerSymbol;Acc:MGI:1922984]	ENSMUSG00000026150
517	1	82635673	82647480	82641577	82647480	82635673	-1	transmembrane 4 L six family member 20 [Source:MarkerSymbol;Acc:MGI:1913511]	ENSMUSG00000026149
1402	1	82701495	82701886	82701691	82701886	82701495	-1		ENSMUSG00000072444
518	1	82718507	82775299	82746903	82718507	82775299	1	HIV-1 Rev binding protein [Source:MarkerSymbol;Acc:MGI:1333754]	ENSMUSG00000026159
519	1	82891548	82905404	82898476	82905404	82891548	-1	solute carrier family 19 (sodium/hydrogen exchanger), member 3 [Source:MarkerSymbol;Acc:MGI:1931307]	ENSMUSG00000038496
520	1	82995806	83005701	83000754	82995806	83005701	1	chemokine (C-C motif) ligand 20 [Source:MarkerSymbol;Acc:MGI:1329031]	ENSMUSG00000026166
521	1	83038786	83089594	83064190	83038786	83089594	1	WD repeat domain 69 [Source:MarkerSymbol;Acc:MGI:1923089]	ENSMUSG00000053161
522	1	83134470	83263997	83199234	83263997	83134470	-1	RIKEN cDNA 4930544G21 gene [Source:MarkerSymbol;Acc:MGI:1924879]	ENSMUSG00000026163
1608	1	83800943	83801066	83801005	83800943	83801066	1	Small nucleolar RNA SNORA17 [Source: RFAM 8.0] [Source: RFAM 8.0]	ENSMUSG00000077736
523	1	83915323	84163616	84039469	84163616	83915323	-1	phosphotyrosine interaction domain containing 1 [Source:MarkerSymbol;Acc:MGI:2138391]	ENSMUSG00000045658
524	1	84248864	84575246	84412055	84575246	84248864	-1	delta/notch-like EGF-related receptor [Source:MarkerSymbol;Acc:MGI:2152889]	ENSMUSG00000036766
525	1	84603331	84693945	84648638	84693945	84603331	-1	thyroid hormone receptor interactor 12 [Source:MarkerSymbol;Acc:MGI:1309481]	ENSMUSG00000026219
526	1	84718898	84779509	84749204	84718898	84779509	1	F-box protein 36 [Source:MarkerSymbol;Acc:MGI:1289192]	ENSMUSG00000073633
527	1	84784923	84814159	84799541	84814159	84784923	-1	solute carrier family 16 (monocarboxylic acid transporters), member 14 [Source:MarkerSymbol;Acc:MGI:1919031]	ENSMUSG00000026220
528	1	84842694	84843584	84843139	84842694	84843584	1	component of Sp100-rs [Source:MarkerSymbol;Acc:MGI:1891441]	ENSMUSG00000073632
529	1	84891132	84891812	84891472	84891132	84891812	1		ENSMUSG00000064281
530	1	84906979	84920989	84913984	84920989	84906979	-1	component of Sp100-rs [Source:MarkerSymbol;Acc:MGI:1891441]	ENSMUSG00000061852
531	1	84962066	85149592	85055829	85149592	84962066	-1	RIKEN cDNA C130026I21 gene [Source:MarkerSymbol;Acc:MGI:3612702]	ENSMUSG00000052477
532	1	84979189	84979560	84979375	84979189	84979560	1		ENSMUSG00000073631
533	1	84990513	84993050	84991781	84990513	84993050	1	RIKEN cDNA A530040E14 gene [Source:MarkerSymbol;Acc:MGI:3612703]	ENSMUSG00000072109
534	1	85081250	85092566	85086908	85081250	85092566	1	component of Sp100-rs [Source:MarkerSymbol;Acc:MGI:1891441]	ENSMUSG00000073630
535	1	85154133	85156046	85155089	85154133	85156046	1	Sp110 nuclear body protein [Source:MarkerSymbol;Acc:MGI:1923364]	ENSMUSG00000073629
536	1	87406847	87408466	87407657	87406847	87408466	1	predicted gene, ENSMUSG00000068279 [Source:MarkerSymbol;Acc:MGI:3642025]	ENSMUSG00000068279
537	1	87408070	87429975	87419022	87429975	87408070	-1	Sp110 nuclear body protein [Source:MarkerSymbol;Acc:MGI:1923364]	ENSMUSG00000070034
538	1	87431874	87476208	87454041	87431874	87476208	1	Sp140 nuclear body protein [Source:MarkerSymbol;Acc:MGI:3702467]	ENSMUSG00000070031
539	1	87441024	87441395	87441210	87441395	87441024	-1	RIKEN cDNA A530040E14 gene [Source:MarkerSymbol;Acc:MGI:3612703]	ENSMUSG00000073628
540	1	87481185	87540619	87510902	87481185	87540619	1	nuclear antigen Sp100 [Source:MarkerSymbol;Acc:MGI:109561]	ENSMUSG00000026222
1575	1	87506053	87506156	87506105	87506053	87506156	1	5S ribosomal RNA [Source: RFAM 8.0] [Source: RFAM 8.0]	ENSMUSG00000064414
541	1	87548863	87567747	87558305	87567747	87548863	-1	RIKEN cDNA A630001G21 gene [Source:MarkerSymbol;Acc:MGI:2443131]	ENSMUSG00000052760
542	1	87624956	87681536	87653246	87624956	87681536	1	calcium binding protein 39 [Source:MarkerSymbol;Acc:MGI:107438]	ENSMUSG00000036707
543	1	87725736	87739863	87732800	87725736	87739863	1	integral membrane protein 2C [Source:MarkerSymbol;Acc:MGI:1927594]	ENSMUSG00000026223
544	1	87760175	87762696	87761435	87760175	87762696	1	RIKEN cDNA 4933407L21 gene [Source:MarkerSymbol;Acc:MGI:1918391]	ENSMUSG00000026224
545	1	87770708	87792178	87781443	87792178	87770708	-1	G protein-coupled receptor 55 [Source:MarkerSymbol;Acc:MGI:2685064]	ENSMUSG00000049608
546	1	87853117	87861129	87857123	87853117	87861129	1	spermatogenesis associated 3 [Source:MarkerSymbol;Acc:MGI:1917310]	ENSMUSG00000026226
547	1	87877439	87886626	87882033	87877439	87886626	1	RIKEN cDNA 2810459M11 gene [Source:MarkerSymbol;Acc:MGI:1920042]	ENSMUSG00000026227
548	1	87895790	87970466	87933128	87895790	87970466	1	proteasome (prosome, macropain) 26S subunit, non-ATPase, 1 [Source:MarkerSymbol;Acc:MGI:1917497]	ENSMUSG00000026229
1490	1	87918472	87918593	87918532	87918472	87918593	1	Small nucleolar RNA SNORA26 [Source: RFAM 8.0] [Source: RFAM 8.0]	ENSMUSG00000077274
549	1	87930208	87943141	87936674	87943141	87930208	-1	5-hydroxytryptamine (serotonin) receptor 2B [Source:MarkerSymbol;Acc:MGI:109323]	ENSMUSG00000026228
550	1	87985973	88165803	88075888	87985973	88165803	1	armadillo repeat containing 9 [Source:MarkerSymbol;Acc:MGI:1926045]	ENSMUSG00000062590
551	1	88181791	88189394	88185593	88189394	88181791	-1	nucleolin [Source:MarkerSymbol;Acc:MGI:97286]	ENSMUSG00000026234
1532	1	88182340	88182472	88182406	88182472	88182340	-1	Small nucleolar RNA SNORA75 [Source: RFAM 8.0] [Source: RFAM 8.0]	ENSMUSG00000064837
1600	1	88183179	88183258	88183219	88183258	88183179	-1	Small nucleolar RNA SNORD20 [Source: RFAM 8.0] [Source: RFAM 8.0]	ENSMUSG00000064696
1573	1	88187432	88187501	88187466	88187501	88187432	-1	Small nucleolar RNA SNORD82 [Source: RFAM 8.0] [Source: RFAM 8.0]	ENSMUSG00000064823
1403	1	88190247	88191132	88190689	88190247	88191132	1		ENSMUSG00000026236
552	1	88203181	88203681	88203431	88203181	88203681	1	predicted gene, ENSMUSG00000073627 [Source:MarkerSymbol;Acc:MGI:3642082]	ENSMUSG00000073627
553	1	88217496	88219312	88218404	88219312	88217496	-1	neuromedin U receptor 1 [Source:MarkerSymbol;Acc:MGI:1341898]	ENSMUSG00000026237
554	1	88257500	88259211	88258356	88257500	88259211	1	RIKEN cDNA 1700019O17 gene [Source:MarkerSymbol;Acc:MGI:1919113]	ENSMUSG00000036574
555	1	88304830	88305177	88305004	88304830	88305177	1		ENSMUSG00000067125
556	1	88357896	88361866	88359881	88357896	88361866	1		ENSMUSG00000026238
557	1	88374186	88413672	88393929	88413672	88374186	-1	phosphodiesterase 6D, cGMP-specific, rod, delta [Source:MarkerSymbol;Acc:MGI:1270843]	ENSMUSG00000026239
558	1	88418271	88437671	88427971	88418271	88437671	1	COP9 (constitutive photomorphogenic) homolog, subunit 7b (Arabidopsis thaliana) [Source:MarkerSymbol;Acc:MGI:1349388]	ENSMUSG00000026240
559	1	88497462	88501743	88499602	88501743	88497462	-1	natriuretic peptide precursor type C [Source:MarkerSymbol;Acc:MGI:97369]	ENSMUSG00000026241
560	1	88534990	88881266	88708128	88534990	88881266	1	DIS3 mitotic control homolog (S. cerevisiae)-like 2 [Source:MarkerSymbol;Acc:MGI:2442555]	ENSMUSG00000053333
561	1	88739964	88740854	88740409	88740854	88739964	-1	similar to 60S ribosomal protein L6 (TAX-responsive enhancer element binding protein 107) (TAXREB107) (LOC669689), mRNA [Source:RefSeq_dna;Acc:XR_002855]	ENSMUSG00000067121
562	1	88917861	88921082	88919471	88921082	88917861	-1	alkaline phosphatase 5 [Source:MarkerSymbol;Acc:MGI:108009]	ENSMUSG00000026246
563	1	88956179	88959083	88957631	88956179	88959083	1	alkaline phosphatase 3, intestine, not Mn requiring [Source:MarkerSymbol;Acc:MGI:87984]	ENSMUSG00000036500
564	1	88978833	88987527	88983180	88987527	88978833	-1	endothelin converting enzyme-like 1 [Source:MarkerSymbol;Acc:MGI:1343461]	ENSMUSG00000026247
565	1	89017836	89019574	89018705	89017836	89019574	1	RIKEN cDNA 1700027L20 gene [Source:MarkerSymbol;Acc:MGI:1916703]	ENSMUSG00000036480
566	1	89021823	89031240	89026531	89021823	89031240	1	cholinergic receptor, nicotinic, delta polypeptide [Source:MarkerSymbol;Acc:MGI:87893]	ENSMUSG00000026251
567	1	89036982	89043865	89040424	89036982	89043865	1	cholinergic receptor, nicotinic, gamma polypeptide [Source:MarkerSymbol;Acc:MGI:87895]	ENSMUSG00000026253
568	1	89045085	89071659	89058372	89045085	89071659	1	eukaryotic translation initiation factor 4E member 2 [Source:MarkerSymbol;Acc:MGI:1914440]	ENSMUSG00000026254
569	1	89095534	89142011	89118772	89095534	89142011	1	EF hand domain containing 1 [Source:MarkerSymbol;Acc:MGI:1921607]	ENSMUSG00000026255
570	1	89158223	89428992	89293607	89158223	89428992	1	neuraminidase 2 [Source:MarkerSymbol;Acc:MGI:1344417]	ENSMUSG00000048000
1496	1	89172626	89172732	89172679	89172732	89172626	-1	U6 spliceosomal RNA [Source: RFAM 8.0] [Source: RFAM 8.0]	ENSMUSG00000065334
571	1	89301442	89306652	89304047	89301442	89306652	1	RIKEN cDNA 3110079O15 gene [Source:MarkerSymbol;Acc:MGI:1920484]	ENSMUSG00000026258
572	1	89308000	89405041	89356520	89405041	89308000	-1	neuronal guanine nucleotide exchange factor [Source:MarkerSymbol;Acc:MGI:1858414]	ENSMUSG00000026259
573	1	89451660	89549455	89500558	89451660	89549455	1	inositol polyphosphate-5-phosphatase D [Source:MarkerSymbol;Acc:MGI:107357]	ENSMUSG00000026288
574	1	89587242	89623593	89605418	89587242	89623593	1	autophagy-related 16-like 1 (yeast) [Source:MarkerSymbol;Acc:MGI:1924290]	ENSMUSG00000026289
1475	1	89608109	89608380	89608245	89608109	89608380	1	Small Cajal body specific RNA 6 [Source: RFAM 8.0] [Source: RFAM 8.0]	ENSMUSG00000077242
1527	1	89615727	89615991	89615859	89615727	89615991	1	Small Cajal body specific RNA 6 [Source: RFAM 8.0] [Source: RFAM 8.0]	ENSMUSG00000077429
575	1	89627638	89627988	89627813	89627638	89627988	1	RIKEN cDNA 5830472F04 gene [Source:MarkerSymbol;Acc:MGI:1923354]	ENSMUSG00000073623
576	1	89634851	89676194	89655523	89634851	89676194	1	retinal S-antigen [Source:MarkerSymbol;Acc:MGI:98227]	ENSMUSG00000056055
577	1	89711545	89775660	89743603	89711545	89775660	1	diacylglycerol kinase, delta [Source:MarkerSymbol;Acc:MGI:2138334]	ENSMUSG00000070738
578	1	89776292	89839722	89808007	89839722	89776292	-1	UBP40_MOUSE Isoform 2 of Q8BWR4 - Mus musculus (Mouse) [Source:Uniprot/Varsplic;Acc:Q8BWR4-2]	ENSMUSG00000005501
1478	1	89847095	89847204	89847149	89847095	89847204	1		ENSMUSG00000077075
579	1	89901971	90050174	89976073	89901971	90050174	1	UDP glucuronosyltransferase 1 family, polypeptide A7C [Source:MarkerSymbol;Acc:MGI:3032636]	ENSMUSG00000054545
580	1	90036121	90036849	90036485	90036849	90036121	-1	DnaJ (Hsp40) homolog, subfamily B, member 3 [Source:MarkerSymbol;Acc:MGI:1306822]	ENSMUSG00000048591
581	1	90090122	90093050	90091586	90090122	90093050	1	16 days neonate male diencephalon cDNA, RIKEN full-length enriched library, clone:G630046L15 product:hypothetical Rhodopsin-like GPCR superfamily containing protein, full insert sequence. [Source:Uniprot/SPTREMBL;Acc:Q3UN91]	ENSMUSG00000044873
582	1	90094280	90108691	90101486	90108691	90094280	-1	RIKEN cDNA 6430706D22 gene [Source:MarkerSymbol;Acc:MGI:2685821]	ENSMUSG00000044783
583	1	90150132	90220022	90185077	90150132	90220022	1	transient receptor potential cation channel, subfamily M, member 8 [Source:MarkerSymbol;Acc:MGI:2181435]	ENSMUSG00000036251
584	1	90238190	90257609	90247900	90238190	90257609	1	secreted phosphoprotein 2 [Source:MarkerSymbol;Acc:MGI:1922646]	ENSMUSG00000026295
585	1	90334314	90341057	90337686	90341057	90334314	-1	glutamine repeat protein 1 [Source:MarkerSymbol;Acc:MGI:108038]	ENSMUSG00000062310
586	1	90504298	90533047	90518672	90533047	90504298	-1	ADP-ribosylation factor-like 4C [Source:MarkerSymbol;Acc:MGI:2445172]	ENSMUSG00000049866
587	1	90763528	90764741	90764134	90763528	90764741	1		ENSMUSG00000046553
588	1	90901586	90984963	90943274	90901586	90984963	1	SH3-domain binding protein 4 [Source:MarkerSymbol;Acc:MGI:2138297]	ENSMUSG00000036206
1404	1	91087353	91088152	91087753	91088152	91087353	-1	similar to Rpl7a protein (LOC383542), misc RNA [Source:RefSeq_dna;Acc:XR_031627]	ENSMUSG00000061680
589	1	91285982	91726453	91506218	91285982	91726453	1	centaurin, gamma 2 [Source:MarkerSymbol;Acc:MGI:2653690]	ENSMUSG00000055013
590	1	91759133	91762347	91760740	91762347	91759133	-1	gastrulation brain homeobox 2 [Source:MarkerSymbol;Acc:MGI:95668]	ENSMUSG00000034486
591	1	91783849	91845748	91814799	91845748	91783849	-1	ankyrin repeat and SOCS box-containing 18 [Source:MarkerSymbol;Acc:MGI:2655109]	ENSMUSG00000067081
592	1	91873797	91920700	91897249	91920700	91873797	-1	IQCA_MOUSE Isoform 3 of Q9CUL5 - Mus musculus (Mouse) [Source:Uniprot/Varsplic;Acc:Q9CUL5-3]	ENSMUSG00000026301
593	1	91958628	91976324	91967476	91976324	91958628	-1	IQCA_MOUSE Isoform 2 of Q9CUL5 - Mus musculus (Mouse) [Source:Uniprot/Varsplic;Acc:Q9CUL5-2]	ENSMUSG00000073621
594	1	92035174	92047459	92041316	92035174	92047459	1	chemokine (C-X-C motif) receptor 7 [Source:MarkerSymbol;Acc:MGI:109562]	ENSMUSG00000044337
595	1	92433385	92443499	92438442	92433385	92443499	1	COP9 (constitutive photomorphogenic) homolog, subunit 8 (Arabidopsis thaliana) [Source:MarkerSymbol;Acc:MGI:1915363]	ENSMUSG00000034432
596	1	92505565	92510197	92507881	92505565	92510197	1	predicted gene, EG433332 [Source:MarkerSymbol;Acc:MGI:3643217]	ENSMUSG00000056128
597	1	92596517	92674334	92635425	92674334	92596517	-1	procollagen, type VI, alpha 3 [Source:MarkerSymbol;Acc:MGI:88461]	ENSMUSG00000048126
598	1	92745509	92781547	92763528	92745509	92781547	1	melanophilin [Source:MarkerSymbol;Acc:MGI:2176380]	ENSMUSG00000026303
599	1	92783511	92784418	92783965	92783511	92784418	1		ENSMUSG00000034397
600	1	92788541	92800026	92794283	92800026	92788541	-1	RAB17, member RAS oncogene family [Source:MarkerSymbol;Acc:MGI:104640]	ENSMUSG00000026304
601	1	92829210	92958602	92893906	92829210	92958602	1	leucine rich repeat (in FLII) interacting protein 1 [Source:MarkerSymbol;Acc:MGI:1342770]	ENSMUSG00000026305
602	1	92975509	93001201	92988355	92975509	93001201	1	RNA binding motif protein 44 [Source:MarkerSymbol;Acc:MGI:2685663]	ENSMUSG00000070732
603	1	93010229	93054126	93032177	93010229	93054126	1	receptor (calcitonin) activity modifying protein 1 [Source:MarkerSymbol;Acc:MGI:1858418]	ENSMUSG00000034353
604	1	93054380	93055601	93054990	93054380	93055601	1	RIKEN cDNA 9130218E19 gene [Source:MarkerSymbol;Acc:MGI:1924927]	ENSMUSG00000073618
605	1	93114058	93115422	93114740	93114058	93115422	1	ubiquitin-conjugating enzyme E2F (putative) [Source:MarkerSymbol;Acc:MGI:1915171]	ENSMUSG00000034343
606	1	93126451	93127342	93126897	93126451	93127342	1		ENSMUSG00000043926
607	1	93128744	93151480	93140112	93128744	93151480	1	selenocysteine lyase [Source:MarkerSymbol;Acc:MGI:1355310]	ENSMUSG00000026307
608	1	93152481	93178709	93165595	93152481	93178709	1	espin-like [Source:MarkerSymbol;Acc:MGI:2685402]	ENSMUSG00000049515
