RowNames	Chr	GenomeStart	GenomeEnd	GenomeMid	FeatureStart	FeatureEnd	Strand	Description	EnsemblGeneID
1555	1	3092097	3092206	3092151	3092097	3092206	1	U6 spliceosomal RNA [Source: RFAM 8.0] [Source: RFAM 8.0]	ENSMUSG00000064842
1	1	3206103	3661429	3433766	3661429	3206103	-1	X Kell blood group precursor related family member 4 [Source:MarkerSymbol;Acc:MGI:3528744]	ENSMUSG00000051951
2	1	3266404	3267429	3266916	3266404	3267429	1	Mus Musculus type D-like endogenous retrovirus 1 [Source:MarkerSymbol;Acc:MGI:2675046]	ENSMUSG00000073743
3	1	3670652	3670993	3670822	3670652	3670993	1	predicted gene, ENSMUSG00000073742 [Source:MarkerSymbol;Acc:MGI:3642703]	ENSMUSG00000073742
1567	1	3773893	3773942	3773917	3773942	3773893	-1	U7 small nuclear RNA [Source: RFAM 8.0] [Source: RFAM 8.0]	ENSMUSG00000077600
1522	1	3773957	3774006	3773981	3774006	3773957	-1	U7 small nuclear RNA [Source: RFAM 8.0] [Source: RFAM 8.0]	ENSMUSG00000077395
4	1	4334224	4350473	4342348	4350473	4334224	-1	retinitis pigmentosa 1 homolog (human) [Source:MarkerSymbol;Acc:MGI:1341105]	ENSMUSG00000025900
5	1	4481009	4486494	4483751	4486494	4481009	-1	SRY-box containing gene 17 [Source:MarkerSymbol;Acc:MGI:107543]	ENSMUSG00000025902
1493	1	4519098	4519204	4519151	4519098	4519204	1	U6 spliceosomal RNA [Source: RFAM 8.0] [Source: RFAM 8.0]	ENSMUSG00000064376
1361	1	4679207	4679485	4679346	4679485	4679207	-1		ENSMUSG00000072448
2	11	3024018	3031950	3027984	3024018	3031950	1	RIKEN cDNA 4933439C20 gene [Source:MarkerSymbol;Acc:MGI:1914026]	ENSMUSG00000058140
3	11	3031892	3093463	3062678	3093463	3031892	-1	Sfi1 homolog, spindle assembly associated (yeast) [Source:MarkerSymbol;Acc:MGI:1926137]	ENSMUSG00000023764
4	11	3102395	3144588	3123491	3102395	3144588	1	eukaryotic translation initiation factor 4E nuclear import factor 1 [Source:MarkerSymbol;Acc:MGI:1921453]	ENSMUSG00000020454
5	11	3149925	3166396	3158161	3166396	3149925	-1	developmentally regulated GTP binding protein 1 [Source:MarkerSymbol;Acc:MGI:1343297]	ENSMUSG00000020457
6	11	3189170	3209083	3199126	3189170	3209083	1	POZ (BTB) and AT hook containing zinc finger 1 [Source:MarkerSymbol;Acc:MGI:1891832]	ENSMUSG00000020453
7	11	3205429	3231181	3218305	3231181	3205429	-1	predicted gene, OTTMUSG00000007639 [Source:MarkerSymbol;Acc:MGI:3649892]	ENSMUSG00000053263
8	11	3230404	3242941	3236672	3230404	3242941	1	phosphoinositide-3-kinase interacting protein 1 [Source:MarkerSymbol;Acc:MGI:1917016]	ENSMUSG00000034614
9	11	3243300	3309238	3276269	3309238	3243300	-1	LIM motif-containing protein kinase 2 [Source:MarkerSymbol;Acc:MGI:1197517]	ENSMUSG00000020451
10	11	3315986	3352366	3334176	3352366	3315986	-1	ring finger protein 185 [Source:MarkerSymbol;Acc:MGI:1922078]	ENSMUSG00000020448
11	11	3352475	3379834	3366155	3352475	3379834	1	ring finger protein 185 [Source:MarkerSymbol;Acc:MGI:1922078]	ENSMUSG00000034587
1	13	3007964	3008804	3008384	3007964	3008804	1		ENSMUSG00000075246
2	13	3138897	3139421	3139159	3139421	3138897	-1		ENSMUSG00000075244
3	13	3148736	3188569	3168652	3148736	3188569	1	spermatogenesis associated glutamate (E)-rich protein 6, pseudogene 1 (Speer6-ps1) on chromosome 13 [Source:RefSeq_dna;Acc:NR_001581]	ENSMUSG00000069355
953	13	3298132	3298916	3298524	3298132	3298916	1	similar to 40S ribosomal protein S4, X isoform (LOC670119), mRNA [Source:RefSeq_dna;Acc:XR_002810]	ENSMUSG00000046554
4	13	3360281	3368775	3364528	3360281	3368775	1		ENSMUSG00000071554
5	13	3537379	3566287	3551833	3537379	3566287	1	guanosine diphosphate (GDP) dissociation inhibitor 2 [Source:MarkerSymbol;Acc:MGI:99845]	ENSMUSG00000021218
6	13	3565282	3610342	3587812	3610342	3565282	-1	cDNA sequence BC016423 [Source:MarkerSymbol;Acc:MGI:2145274]	ENSMUSG00000033799
7	13	3633322	3651025	3642174	3633322	3651025	1	ankyrin repeat and SOCS box-containing protein 13 [Source:MarkerSymbol;Acc:MGI:2145525]	ENSMUSG00000033781
8	13	3803000	3803449	3803224	3803449	3803000	-1	calmodulin-like 3 [Source:MarkerSymbol;Acc:MGI:1917655]	ENSMUSG00000063130
9	13	3837002	3837917	3837460	3837002	3837917	1	calmodulin 4 [Source:MarkerSymbol;Acc:MGI:1931464]	ENSMUSG00000033765
1	15	3167525	3169694	3168609	3169694	3167525	-1		ENSMUSG00000070829
2	15	3224674	3229710	3227192	3224674	3229710	1	selenoprotein P, plasma, 1 [Source:MarkerSymbol;Acc:MGI:894288]	ENSMUSG00000064373
3	15	3248111	3251191	3249651	3251191	3248111	-1		ENSMUSG00000071814
4	15	3267774	3533231	3400502	3533231	3267774	-1	growth hormone receptor [Source:MarkerSymbol;Acc:MGI:95708]	ENSMUSG00000055737
898	15	3695892	3696875	3696384	3696875	3695892	-1	similar to Glyceraldehyde-3-phosphate dehydrogenase (GAPDH) (LOC669123), mRNA [Source:RefSeq_dna;Acc:XR_002397]	ENSMUSG00000062003
5	15	3915461	3929573	3922517	3929573	3915461	-1	F-box protein 4 [Source:MarkerSymbol;Acc:MGI:2146220]	ENSMUSG00000022184
6	15	3928767	3929707	3929237	3928767	3929707	1	predicted gene, ENSMUSG00000049700 [Source:MarkerSymbol;Acc:MGI:3642636]	ENSMUSG00000049700
7	15	3932035	3945752	3938893	3945752	3932035	-1	expressed sequence AW549877 [Source:MarkerSymbol;Acc:MGI:2146232]	ENSMUSG00000041935
8	15	3976428	4103962	4040195	3976428	4103962	1	3-oxoacid CoA transferase 1 [Source:MarkerSymbol;Acc:MGI:1914291]	ENSMUSG00000022186
9	15	4325491	4525577	4425534	4325491	4525577	1	phosphatidylinositol-specific phospholipase C, X domain containing 3 [Source:MarkerSymbol;Acc:MGI:2442605]	ENSMUSG00000049148
1	17	3000496	3001215	3000856	3001215	3000496	-1		ENSMUSG00000068141
2	17	3013169	3013594	3013381	3013169	3013594	1		ENSMUSG00000044697
3	17	3034252	3038950	3036601	3038950	3034252	-1	RIKEN cDNA D030013I16 gene [Source:MarkerSymbol;Acc:MGI:3612472]	ENSMUSG00000023795
4	17	3071454	3155339	3113396	3071454	3155339	1	RNA binding motif protein 16 [Source:MarkerSymbol;Acc:MGI:1925212]	ENSMUSG00000046201
1142	17	3265423	3267602	3266513	3265423	3267602	1	similar to CD2-associated protein (Mesenchym-to-epithelium transition protein with SH3 domains 1) (METS-1) (LOC669251), mRNA [Source:RefSeq_dna;Acc:XR_002451]	ENSMUSG00000023916
5	17	3283055	3475456	3379255	3283055	3475456	1	T-cell lymphoma invasion and metastasis 2 [Source:MarkerSymbol;Acc:MGI:1344338]	ENSMUSG00000023800
6	17	3475713	3514195	3494954	3514195	3475713	-1	transcription factor B1, mitochondrial [Source:MarkerSymbol;Acc:MGI:2146851]	ENSMUSG00000036983
7	17	3591722	3652743	3622232	3652743	3591722	-1	NADPH oxidase 3 [Source:MarkerSymbol;Acc:MGI:2681162]	ENSMUSG00000023802
8	17	4001140	4039477	4020308	4039477	4001140	-1	RIKEN cDNA 4930470H14 gene [Source:MarkerSymbol;Acc:MGI:1923065]	ENSMUSG00000050459
1205	17	4634502	4634608	4634555	4634502	4634608	1	U6 spliceosomal RNA [Source: RFAM 8.0] [Source: RFAM 8.0]	ENSMUSG00000075813
1	19	3134221	3143065	3138643	3134221	3143065	1		ENSMUSG00000062810
844	19	3136984	3137090	3137037	3137090	3136984	-1	U6 spliceosomal RNA [Source: RFAM 8.0] [Source: RFAM 8.0]	ENSMUSG00000075929
785	19	3205829	3206258	3206043	3205829	3206258	1	predicted gene, EG665806 (EG665806), misc RNA [Source:RefSeq_dna;Acc:XR_001789]	ENSMUSG00000071706
2	19	3259364	3282906	3271135	3282906	3259364	-1	immunoglobulin mu binding protein 2 [Source:MarkerSymbol;Acc:MGI:99954]	ENSMUSG00000024831
3	19	3283047	3292837	3287942	3283047	3292837	1	mitochondrial ribosomal protein L21 [Source:MarkerSymbol;Acc:MGI:2660674]	ENSMUSG00000024829
786	19	3316779	3317586	3317183	3317586	3316779	-1		ENSMUSG00000072440
4	19	3323320	3385732	3354526	3323320	3385732	1	carnitine palmitoyltransferase 1a, liver [Source:MarkerSymbol;Acc:MGI:1098296]	ENSMUSG00000024900
5	19	3388869	3407784	3398327	3388869	3407784	1	metallothionein-like 5, testis-specific (tesmin) [Source:MarkerSymbol;Acc:MGI:1340029]	ENSMUSG00000024905
6	19	3410095	3414112	3412103	3414112	3410095	-1	galanin [Source:MarkerSymbol;Acc:MGI:95637]	ENSMUSG00000024907
7	19	3454928	3575720	3515324	3575720	3454928	-1	SAPS domain family, member 3 [Source:MarkerSymbol;Acc:MGI:1921807]	ENSMUSG00000024908
2	3	3493753	3643025	3568389	3493753	3643025	1	hepatocyte nuclear factor 4, gamma [Source:MarkerSymbol;Acc:MGI:1353604]	ENSMUSG00000017688
3	3	3777548	3777946	3777747	3777548	3777946	1		ENSMUSG00000069125
4	3	3924794	3925125	3924960	3924794	3925125	1		ENSMUSG00000069124
1133	3	4197367	4198699	4198033	4197367	4198699	1		ENSMUSG00000048689
1336	3	4550276	4550408	4550342	4550408	4550276	-1	Small nucleolar RNA SNORA38 [Source: RFAM 8.0] [Source: RFAM 8.0]	ENSMUSG00000064914
5	3	4873339	4874304	4873821	4874304	4873339	-1		ENSMUSG00000051042
6	3	5197836	5198168	5198002	5197836	5198168	1	predicted gene, ENSMUSG00000074728 [Source:MarkerSymbol;Acc:MGI:3641901]	ENSMUSG00000074728
7	3	5201732	5396220	5298976	5201732	5396220	1	zinc finger homeodomain 4 [Source:MarkerSymbol;Acc:MGI:2137668]	ENSMUSG00000025255
8	3	5543573	5559312	5551443	5559312	5543573	-1	peroxisomal membrane protein 3 [Source:MarkerSymbol;Acc:MGI:107486]	ENSMUSG00000040374
1214	3	5864114	5864223	5864168	5864114	5864223	1		ENSMUSG00000077061
2	5	3047633	3048772	3048203	3047633	3048772	1		ENSMUSG00000054012
3	5	3096864	3100229	3098546	3096864	3100229	1		ENSMUSG00000040068
4	5	3242437	3242874	3242655	3242437	3242874	1	ribosomal protein L26 [Source:MarkerSymbol;Acc:MGI:106022]	ENSMUSG00000063754
5	5	3350318	3528231	3439274	3350318	3528231	1	cyclin-dependent kinase 6 [Source:MarkerSymbol;Acc:MGI:1277162]	ENSMUSG00000040274
6	5	3549930	3575076	3562503	3549930	3575076	1	RIKEN cDNA 5830415L20 gene [Source:MarkerSymbol;Acc:MGI:1915402]	ENSMUSG00000058503
1590	5	3567160	3567279	3567220	3567160	3567279	1	5S ribosomal RNA [Source: RFAM 8.0] [Source: RFAM 8.0]	ENSMUSG00000065044
7	5	3577679	3590347	3584013	3577679	3590347	1	RIKEN cDNA 1700109H08 gene [Source:MarkerSymbol;Acc:MGI:1924286]	ENSMUSG00000008307
8	5	3589984	3602414	3596199	3602414	3589984	-1	RIKEN cDNA C030048B08 gene [Source:MarkerSymbol;Acc:MGI:2442653]	ENSMUSG00000040302
9	5	3602072	3643107	3622590	3602072	3643107	1	peroxisome biogenesis factor 1 [Source:MarkerSymbol;Acc:MGI:1918632]	ENSMUSG00000005907
10	5	3639882	3640016	3639949	3640016	3639882	-1	Adult male cecum cDNA, RIKEN full-length enriched library, clone:9130430G15 product:hypothetical protein, full insert sequence. [Source:Uniprot/SPTREMBL;Acc:Q3TS14]	ENSMUSG00000073241
1	7	3109020	3111950	3110485	3111950	3109020	-1		ENSMUSG00000055452
2	7	3212900	3219220	3216060	3219220	3212900	-1	osteoclast associated receptor [Source:MarkerSymbol;Acc:MGI:2179720]	ENSMUSG00000054594
3	7	3220460	3223248	3221854	3220460	3223248	1	NADH dehydrogenase (ubiquinone) 1 alpha subcomplex, 3 [Source:MarkerSymbol;Acc:MGI:1913341]	ENSMUSG00000035674
4	7	3223409	3232971	3228190	3232971	3223409	-1	TCF3 (E2A) fusion partner [Source:MarkerSymbol;Acc:MGI:1916964]	ENSMUSG00000006335
5	7	3233114	3245335	3239224	3233114	3245335	1	PRP31 pre-mRNA processing factor 31 homolog (yeast) [Source:MarkerSymbol;Acc:MGI:1916238]	ENSMUSG00000008373
6	7	3248439	3264187	3256313	3248439	3264187	1	CCR4-NOT transcription complex, subunit 3 [Source:MarkerSymbol;Acc:MGI:2385261]	ENSMUSG00000035632
7	7	3263194	3280599	3271896	3280599	3263194	-1	leukocyte receptor cluster (LRC) member 1 [Source:MarkerSymbol;Acc:MGI:1917007]	ENSMUSG00000019734
8	7	3280876	3296612	3288744	3296612	3280876	-1	leukocyte receptor cluster (LRC) member 4 [Source:MarkerSymbol;Acc:MGI:1924832]	ENSMUSG00000035596
9	7	3296844	3304122	3300483	3296844	3304122	1	tRNA splicing endonuclease 34 homolog (SEN34, S. cerevisiae) [Source:MarkerSymbol;Acc:MGI:1913328]	ENSMUSG00000035585
10	7	3307128	3309984	3308556	3307128	3309984	1	ribosomal protein S9 [Source:MarkerSymbol;Acc:MGI:1924096]	ENSMUSG00000006333
1	9	3000922	3002330	3001626	3000922	3002330	1		ENSMUSG00000061971
2	9	3003346	3006948	3005147	3003346	3006948	1		ENSMUSG00000074566
3	9	3013140	3014344	3013742	3013140	3014344	1		ENSMUSG00000074565
4	9	3015654	3017210	3016432	3015654	3017210	1		ENSMUSG00000074564
5	9	3017408	3021593	3019500	3017408	3021593	1		ENSMUSG00000074563
6	9	3023547	3025218	3024383	3023547	3025218	1		ENSMUSG00000074562
7	9	3025417	3033289	3029353	3025417	3033289	1		ENSMUSG00000074561
8	9	3034599	3035805	3035202	3034599	3035805	1		ENSMUSG00000074559
9	9	3036877	3038316	3037597	3036877	3038316	1		ENSMUSG00000074558
10	9	3133847	3190671	3162259	3190671	3133847	-1	RIKEN cDNA 4930433N12 gene [Source:MarkerSymbol;Acc:MGI:2149746]	ENSMUSG00000042360
2	X	3031607	3031957	3031782	3031957	3031607	-1		ENSMUSG00000073306
3	X	3076819	3077409	3077114	3077409	3076819	-1		ENSMUSG00000073305
4	X	3077970	3128674	3103322	3077970	3128674	1		ENSMUSG00000073304
5	X	3242048	3243544	3242796	3243544	3242048	-1	RIKEN cDNA 1700017G21 gene [Source:MarkerSymbol;Acc:MGI:1919097]	ENSMUSG00000073302
6	X	3411758	3413699	3412728	3411758	3413699	1	predicted gene, OTTMUSG00000016405 (OTTMUSG00000016405), mRNA [Source:RefSeq_dna;Acc:NM_001085545]	ENSMUSG00000073301
7	X	3462829	3464325	3463577	3464325	3462829	-1	similar to Germ cell-less protein-like 2 (mGclh) (LOC673546), mRNA [Source:RefSeq_dna;Acc:XR_004259]	ENSMUSG00000073300
8	X	3547426	3548191	3547808	3548191	3547426	-1	RIKEN cDNA 4930408F14 gene [Source:MarkerSymbol;Acc:MGI:1922101]	ENSMUSG00000067708
1027	X	3670382	3671063	3670722	3671063	3670382	-1	similar to Spindlin-like protein 2 (SPIN-2) (LOC627187), mRNA [Source:RefSeq_dna;Acc:XR_004416]	ENSMUSG00000072314
9	X	3964393	3966334	3965363	3964393	3966334	1	predicted gene, OTTMUSG00000016437 (OTTMUSG00000016437), mRNA [Source:RefSeq_dna;Acc:NM_001085554]	ENSMUSG00000073299
10	X	4049019	4049235	4049127	4049019	4049235	1		ENSMUSG00000073298
1	10	3134304	3227479	3180892	3134304	3227479	1	Cnksr family member 3 [Source:MarkerSymbol;Acc:MGI:2674130]	ENSMUSG00000015202
2	10	3294060	3456102	3375081	3294060	3456102	1	RIKEN cDNA A130090K04 gene [Source:MarkerSymbol;Acc:MGI:2444159]	ENSMUSG00000064065
3	10	3332431	3588035	3460233	3588035	3332431	-1	opioid receptor, mu 1 [Source:MarkerSymbol;Acc:MGI:97441]	ENSMUSG00000000766
4	10	3819639	3864307	3841973	3819639	3864307	1	similar to mouse RING finger 1 (LOC237252), mRNA [Source:RefSeq_dna;Acc:XR_003187]	ENSMUSG00000043134
5	10	3978054	3978847	3978450	3978847	3978054	-1		ENSMUSG00000058273
6	10	4424141	4514372	4469257	4424141	4514372	1	regulator of G-protein signaling 17 [Source:MarkerSymbol;Acc:MGI:1927469]	ENSMUSG00000019775
7	10	4522631	4533477	4528054	4522631	4533477	1	mitochondrial translational release factor 1-like [Source:MarkerSymbol;Acc:MGI:1918830]	ENSMUSG00000019774
8	10	4541152	4547381	4544266	4541152	4547381	1	F-box protein 5 [Source:MarkerSymbol;Acc:MGI:1914391]	ENSMUSG00000019773
9	10	4698927	4707323	4703125	4707323	4698927	-1	vasoactive intestinal polypeptide [Source:MarkerSymbol;Acc:MGI:98933]	ENSMUSG00000019772
10	10	4739637	4752760	4746199	4752760	4739637	-1	myc target 1 [Source:MarkerSymbol;Acc:MGI:1915882]	ENSMUSG00000046916
1	12	3235511	3250376	3242943	3235511	3250376	1	RIKEN cDNA 1700012B15 gene [Source:MarkerSymbol;Acc:MGI:1921423]	ENSMUSG00000069618
2	12	3247726	3309939	3278832	3309939	3247726	-1	RAB10, member RAS oncogene family [Source:MarkerSymbol;Acc:MGI:105066]	ENSMUSG00000020671
3	12	3365132	3406494	3385813	3365132	3406494	1	kinesin family member 3C [Source:MarkerSymbol;Acc:MGI:107979]	ENSMUSG00000020668
4	12	3405308	3426644	3415976	3426644	3405308	-1	RIKEN cDNA 1110002L01 gene [Source:MarkerSymbol;Acc:MGI:1915821]	ENSMUSG00000071456
5	12	3426884	3502468	3464676	3426884	3502468	1	additional sex combs like 2 (Drosophila) [Source:MarkerSymbol;Acc:MGI:1922552]	ENSMUSG00000037486
6	12	3521919	3523369	3522644	3523369	3521919	-1		ENSMUSG00000020666
7	12	3572523	3781505	3677014	3572523	3781505	1	dystrobrevin, beta [Source:MarkerSymbol;Acc:MGI:1203728]	ENSMUSG00000071454
8	12	3806007	3914455	3860231	3806007	3914455	1	DNA methyltransferase 3A [Source:MarkerSymbol;Acc:MGI:1261827]	ENSMUSG00000020661
9	12	3859717	3860034	3859875	3860034	3859717	-1	predicted gene, ENSMUSG00000073242 [Source:MarkerSymbol;Acc:MGI:3641689]	ENSMUSG00000073242
789	12	3931642	3932038	3931840	3931642	3932038	1		ENSMUSG00000033036
1	14	3000506	3145708	3073107	3145708	3000506	-1	similar to Spetex-2F protein (LOC673130), mRNA [Source:RefSeq_dna;Acc:XR_004142]	ENSMUSG00000072752
2	14	3061887	3213216	3137551	3213216	3061887	-1	AY358078 protein (Fragment). [Source:Uniprot/SPTREMBL;Acc:Q7TMP5]	ENSMUSG00000072751
3	14	3259178	3337676	3298427	3259178	3337676	1		ENSMUSG00000068776
4	14	3428068	3437287	3432678	3437287	3428068	-1	RIKEN cDNA D830030K20 gene [Source:MarkerSymbol;Acc:MGI:2443830]	ENSMUSG00000071621
5	14	3470293	3473267	3471780	3473267	3470293	-1	RIKEN cDNA 1700001E04 gene [Source:MarkerSymbol;Acc:MGI:1922688]	ENSMUSG00000072750
6	14	3524605	3528116	3526361	3528116	3524605	-1	similar to Spetex-2F protein (LOC673130), mRNA [Source:RefSeq_dna;Acc:XR_004142]	ENSMUSG00000071613
7	14	3584660	3592527	3588594	3592527	3584660	-1	similar to Spetex-2F protein (LOC673130), mRNA [Source:RefSeq_dna;Acc:XR_004142]	ENSMUSG00000072749
8	14	3594801	3605092	3599947	3605092	3594801	-1		ENSMUSG00000071597
9	14	3714477	3749288	3731883	3714477	3749288	1	predicted gene, EG545013 [Source:MarkerSymbol;Acc:MGI:3646487]	ENSMUSG00000072748
10	14	3807851	3810348	3809099	3807851	3810348	1		ENSMUSG00000071616
1	16	3089398	3161896	3125647	3161896	3089398	-1		ENSMUSG00000075422
2	16	3381268	3429361	3405314	3429361	3381268	-1		ENSMUSG00000068728
3	16	3493163	3493620	3493391	3493163	3493620	1		ENSMUSG00000071684
4	16	3507626	3508567	3508096	3507626	3508567	1	olfactory receptor 161 [Source:MarkerSymbol;Acc:MGI:3032605]	ENSMUSG00000051003
5	16	3622450	3633325	3627888	3633325	3622450	-1	Mediterranean fever [Source:MarkerSymbol;Acc:MGI:1859396]	ENSMUSG00000022534
6	16	3645738	3646253	3645996	3645738	3646253	1	teratocarcinoma-derived growth factor [Source:MarkerSymbol;Acc:MGI:98658]	ENSMUSG00000063911
7	16	3659331	3666009	3662670	3659331	3666009	1	zinc finger protein 263 [Source:MarkerSymbol;Acc:MGI:1921370]	ENSMUSG00000022529
8	16	3754203	3755141	3754672	3754203	3755141	1	olfactory receptor 15 [Source:MarkerSymbol;Acc:MGI:106182]	ENSMUSG00000059043
9	16	3762541	3770034	3766287	3762541	3770034	1	zinc finger protein 174 [Source:RefSeq_peptide;Acc:NP_001074686]	ENSMUSG00000054939
10	16	3776772	3787602	3782187	3787602	3776772	-1	zinc finger protein 597 [Source:MarkerSymbol;Acc:MGI:1918313]	ENSMUSG00000039789
1	18	3266354	3327517	3296936	3327517	3266354	-1	cAMP responsive element modulator [Source:MarkerSymbol;Acc:MGI:88495]	ENSMUSG00000063889
2	18	3383029	3436372	3409701	3383029	3436372	1	cullin 2 [Source:MarkerSymbol;Acc:MGI:1918995]	ENSMUSG00000024231
3	18	3507955	3516402	3512179	3507955	3516402	1	BMP and activin membrane-bound inhibitor, homolog (Xenopus laevis) [Source:MarkerSymbol;Acc:MGI:1915260]	ENSMUSG00000024232
4	18	3858243	3858566	3858405	3858566	3858243	-1		ENSMUSG00000067658
5	18	4165830	4182234	4174032	4165830	4182234	1	lysozyme-like 1 [Source:MarkerSymbol;Acc:MGI:1914578]	ENSMUSG00000024233
595	18	4198214	4198967	4198590	4198967	4198214	-1		ENSMUSG00000073647
6	18	4331325	4352951	4342138	4352951	4331325	-1	mitogen activated protein kinase kinase kinase 8 [Source:MarkerSymbol;Acc:MGI:1346878]	ENSMUSG00000024235
7	18	4375590	4396782	4386186	4375590	4396782	1	PAP associated domain containing 1 [Source:MarkerSymbol;Acc:MGI:1914690]	ENSMUSG00000024234
8	18	4635028	4637572	4636300	4635028	4637572	1	RIKEN cDNA 9430020K01 gene [Source:MarkerSymbol;Acc:MGI:2685174]	ENSMUSG00000048998
9	18	4673922	4680300	4677111	4673922	4680300	1	RIKEN cDNA 9430020K01 gene [Source:MarkerSymbol;Acc:MGI:2685174]	ENSMUSG00000033960
1	2	3031496	3145037	3088266	3031496	3145037	1	RIKEN cDNA 9630050M13 gene [Source:MarkerSymbol;Acc:MGI:2442917]	ENSMUSG00000050530
2	2	3201484	3256020	3228752	3201484	3256020	1	N-myristoyltransferase 2 [Source:MarkerSymbol;Acc:MGI:1202298]	ENSMUSG00000026643
2258	2	3208650	3208790	3208720	3208790	3208650	-1	U4 spliceosomal RNA [Source: RFAM 8.0] [Source: RFAM 8.0]	ENSMUSG00000075837
3	2	3246221	3249874	3248047	3249874	3246221	-1	ribonuclease P/MRP 38 subunit (human) [Source:MarkerSymbol;Acc:MGI:2443607]	ENSMUSG00000049950
4	2	3257539	3258265	3257902	3257539	3258265	1	acyl-Coenzyme A binding domain containing 7 [Source:MarkerSymbol;Acc:MGI:1925495]	ENSMUSG00000026644
5	2	3259267	3283863	3271565	3283863	3259267	-1	oleoyl-ACP hydrolase [Source:MarkerSymbol;Acc:MGI:2139018]	ENSMUSG00000026645
6	2	3326315	3339920	3333117	3339920	3326315	-1	meiosis expressed gene 1 [Source:MarkerSymbol;Acc:MGI:1202878]	ENSMUSG00000026650
7	2	3341422	3377160	3359291	3341422	3377160	1	DNA cross-link repair 1C, PSO2 homolog (S. cerevisiae) [Source:MarkerSymbol;Acc:MGI:2441769]	ENSMUSG00000026648
8	2	3349167	3349349	3349258	3349167	3349349	1	per-hexamer repeat gene 1 [Source:MarkerSymbol;Acc:MGI:104525]	ENSMUSG00000075557
9	2	3373092	3392236	3382664	3392236	3373092	-1	suppressor of variegation 3-9 homolog 2 (Drosophila) [Source:MarkerSymbol;Acc:MGI:1890396]	ENSMUSG00000026646
4	4	3476188	3501915	3489052	3501915	3476188	-1	transmembrane protein 68 [Source:MarkerSymbol;Acc:MGI:1919348]	ENSMUSG00000028232
5	4	3502022	3543768	3522895	3502022	3543768	1	trimethylguanosine synthase homolog (S. cerevisiae) [Source:MarkerSymbol;Acc:MGI:2151797]	ENSMUSG00000028233
6	4	3605272	3718759	3662016	3605272	3718759	1	Yamaguchi sarcoma viral (v-yes-1) oncogene homolog [Source:MarkerSymbol;Acc:MGI:96892]	ENSMUSG00000042228
1439	4	3642929	3643947	3643438	3642929	3643947	1		ENSMUSG00000043175
1555	4	3723594	3723730	3723662	3723730	3723594	-1	Small nucleolar RNA SNORA17 [Source: RFAM 8.0] [Source: RFAM 8.0]	ENSMUSG00000077271
1440	4	3734124	3734815	3734470	3734815	3734124	-1		ENSMUSG00000055216
7	4	3758481	3762812	3760647	3762812	3758481	-1	ribosomal protein S20 [Source:MarkerSymbol;Acc:MGI:1914677]	ENSMUSG00000028234
1561	4	3784624	3784760	3784692	3784760	3784624	-1	Small nucleolar RNA SNORA17 [Source: RFAM 8.0] [Source: RFAM 8.0]	ENSMUSG00000077293
1441	4	3797930	3799104	3798517	3799104	3797930	-1	Moloney sarcoma oncogene (Mos), mRNA [Source:RefSeq_dna;Acc:NM_020021]	ENSMUSG00000028235
8	4	3829756	3865529	3847642	3865529	3829756	-1	pleiomorphic adenoma gene 1 [Source:MarkerSymbol;Acc:MGI:1891916]	ENSMUSG00000003282
1492	6	3150565	3151101	3150833	3150565	3151101	1	Small subunit ribosomal RNA, 5' domain [Source: RFAM 8.0] [Source: RFAM 8.0]	ENSMUSG00000065002
2	6	3157869	3158707	3158288	3157869	3158707	1		ENSMUSG00000071580
3	6	3322260	3349492	3335876	3349492	3322260	-1	sterile alpha motif domain containing 9-like [Source:MarkerSymbol;Acc:MGI:1343184]	ENSMUSG00000047735
4	6	3413257	3444478	3428867	3444478	3413257	-1	expressed sequence AI987662 [Source:MarkerSymbol;Acc:MGI:2141520]	ENSMUSG00000044156
5	6	3448405	3553307	3500856	3448405	3553307	1	coiled-coil domain containing 132 [Source:MarkerSymbol;Acc:MGI:1920538]	ENSMUSG00000001376
6	6	3637395	3672973	3655184	3672973	3637395	-1	calcitonin receptor [Source:MarkerSymbol;Acc:MGI:101950]	ENSMUSG00000023964
1496	6	3671290	3671387	3671338	3671387	3671290	-1		ENSMUSG00000076357
1525	6	3671897	3672003	3671950	3672003	3671897	-1	mmu-mir-489 [Source:miRBase;Acc:MI0003476]	ENSMUSG00000070107
7	6	3912585	3918357	3915471	3918357	3912585	-1	tissue factor pathway inhibitor 2 [Source:MarkerSymbol;Acc:MGI:108543]	ENSMUSG00000029664
8	6	3944012	3947436	3945724	3944012	3947436	1	guanine nucleotide binding protein (G protein), gamma transducing activity polypeptide 1 [Source:MarkerSymbol;Acc:MGI:109165]	ENSMUSG00000029663
1	8	3139104	3139997	3139550	3139104	3139997	1		ENSMUSG00000071221
2	8	3153919	3154248	3154083	3154248	3153919	-1	RIKEN cDNA D630014A15 gene [Source:MarkerSymbol;Acc:MGI:2442502]	ENSMUSG00000074498
3	8	3155401	3279128	3217265	3279128	3155401	-1	insulin receptor [Source:MarkerSymbol;Acc:MGI:96575]	ENSMUSG00000005534
4	8	3364627	3389099	3376863	3364627	3389099	1	RIKEN cDNA A430078G23 gene [Source:MarkerSymbol;Acc:MGI:2442135]	ENSMUSG00000074497
5	8	3393008	3456600	3424804	3393008	3456600	1	rho/rac guanine nucleotide exchange factor (GEF) 18 [Source:MarkerSymbol;Acc:MGI:2142567]	ENSMUSG00000004568
6	8	3457108	3467680	3462394	3467680	3457108	-1	peroxisomal biogenesis factor 11c [Source:MarkerSymbol;Acc:MGI:1920905]	ENSMUSG00000069633
7	8	3470862	3487178	3479020	3470862	3487178	1	RIKEN cDNA 1700019B03 gene [Source:MarkerSymbol;Acc:MGI:1923656]	ENSMUSG00000040340
8	8	3493171	3497208	3495189	3493171	3497208	1	zinc finger protein 358 [Source:MarkerSymbol;Acc:MGI:2153740]	ENSMUSG00000047264
9	8	3500506	3515227	3507866	3500506	3515227	1	mucolipin 1 [Source:MarkerSymbol;Acc:MGI:1890498]	ENSMUSG00000004567
10	8	3515384	3544267	3529826	3515384	3544267	1	patatin-like phospholipase domain containing 6 [Source:MarkerSymbol;Acc:MGI:1354723]	ENSMUSG00000004565
14	MT	1	68	35	1	68	1		ENSMUSG00000064336
36	MT	70	1024	547	70	1024	1		ENSMUSG00000064337
15	MT	1025	1093	1059	1025	1093	1		ENSMUSG00000064338
37	MT	1094	2675	1884	1094	2675	1		ENSMUSG00000064339
16	MT	2676	2750	2713	2676	2750	1		ENSMUSG00000064340
1	MT	2751	3707	3229	2751	3707	1	NADH dehydrogenase 1, mitochondrial [Source:MarkerSymbol;Acc:MGI:101787]	ENSMUSG00000064341
17	MT	3706	3774	3740	3706	3774	1		ENSMUSG00000064342
18	MT	3772	3842	3807	3842	3772	-1		ENSMUSG00000064343
19	MT	3845	3913	3879	3845	3913	1		ENSMUSG00000064344
2	MT	3914	4951	4432	3914	4951	1	NADH dehydrogenase 2, mitochondrial [Source:MarkerSymbol;Acc:MGI:102500]	ENSMUSG00000064345
1	Y	6784	31738	19261	31738	6784	-1		ENSMUSG00000071964
2	Y	61650	133852	97751	133852	61650	-1	zinc finger protein 1, Y linked [Source:MarkerSymbol;Acc:MGI:99212]	ENSMUSG00000053211
3	Y	144999	582181	363590	582181	144999	-1	ubiquitously transcribed tetratricopeptide repeat gene, Y chromosome [Source:MarkerSymbol;Acc:MGI:894810]	ENSMUSG00000068457
4	Y	157264	179965	168614	157264	179965	1	ubiquitin-activating enzyme E1, Chr Y 1 [Source:MarkerSymbol;Acc:MGI:98891]	ENSMUSG00000069053
5	Y	234231	280256	257243	234231	280256	1	jumonji, AT rich interactive domain 1D (Rbp2 like) [Source:MarkerSymbol;Acc:MGI:99780]	ENSMUSG00000056673
6	Y	328073	328191	328132	328191	328073	-1	5S ribosomal RNA [Source: RFAM 8.0] [Source: RFAM 8.0]	ENSMUSG00000075874
7	Y	347038	365290	356164	347038	365290	1	eukaryotic translation initiation factor 2, subunit 3, structural gene Y-linked [Source:MarkerSymbol;Acc:MGI:1349430]	ENSMUSG00000069049
8	Y	597998	623011	610504	623011	597998	-1	DEAD (Asp-Glu-Ala-Asp) box polypeptide 3, Y-linked [Source:MarkerSymbol;Acc:MGI:1349406]	ENSMUSG00000069045
9	Y	635400	796225	715812	796225	635400	-1	ubiquitin specific peptidase 9, Y chromosome [Source:MarkerSymbol;Acc:MGI:1313274]	ENSMUSG00000069044
10	Y	644716	644816	644766	644816	644716	-1	U6 spliceosomal RNA [Source: RFAM 8.0] [Source: RFAM 8.0]	ENSMUSG00000077793
